{"layers":[{"out_depth":1,"out_sx":48,"out_sy":48,"layer_type":"input"},{"sx":5,"sy":5,"stride":1,"in_depth":1,"out_depth":8,"out_sx":44,"out_sy":44,"layer_type":"conv","l1_decay_mul":0,"l2_decay_mul":1,"pad":0,"filters":[{"sx":5,"sy":5,"depth":1,"w":{"0":0.19509541584023093,"1":-0.2999178165294531,"2":-0.5512569223126048,"3":0.11277709464654088,"4":-0.3023425167857988,"5":-0.29156334470634987,"6":-0.022036407505603896,"7":0.1830935349771013,"8":0.12594684602354597,"9":-0.3240034679849505,"10":0.09864004436820507,"11":-0.1465753199347108,"12":0.290679332027801,"13":-0.23734437866594443,"14":-0.017220839378433453,"15":-0.03841444823490142,"16":0.3826182805028021,"17":-0.19374208288213884,"18":-0.03844821166742042,"19":-0.05582713433621788,"20":-0.44516356462250134,"21":0.1413589104806248,"22":0.06460457273157783,"23":-0.0880767881713972,"24":0.1739450311193584}},{"sx":5,"sy":5,"depth":1,"w":{"0":0.2237242392030592,"1":-0.008254859866595632,"2":0.02115808220363661,"3":-0.17482573123264203,"4":-0.03803807975653594,"5":0.05796440877291163,"6":-0.1518984806755828,"7":-0.42286645928380545,"8":-0.09276531865540581,"9":-0.37056706947177925,"10":0.10478660324367468,"11":-0.04966653472130501,"12":-0.03553100286137679,"13":0.1451904911348516,"14":0.42140923406621267,"15":0.153974008731934,"16":-0.10279998365529736,"17":-0.20110190321956323,"18":-0.20573167629391934,"19":0.29022011378311163,"20":-0.07057897221844252,"21":-0.08840734698767004,"22":-0.08370803806986432,"23":-0.027329371601037364,"24":0.21936060163256774}},{"sx":5,"sy":5,"depth":1,"w":{"0":0.24635754678323568,"1":-0.10575900244754041,"2":0.2173372625877089,"3":-0.4305637772797512,"4":-0.2182189517290645,"5":0.2166465203670408,"6":-0.1596611409646362,"7":0.19245429881193177,"8":-0.11529550132695911,"9":0.24827965446457775,"10":0.1909717933208766,"11":-0.11589393976923533,"12":0.2937887572091956,"13":0.06172473472404551,"14":-0.062340611005695,"15":-0.4020870659707827,"16":-0.38049109957342175,"17":-0.3117864456048938,"18":0.291298577870942,"19":-0.1707667939409926,"20":-0.43914603966647936,"21":-0.038930382980577175,"22":-0.18186488304208862,"23":0.09166747187701617,"24":0.11681126200327939}},{"sx":5,"sy":5,"depth":1,"w":{"0":0.40511578933933773,"1":0.4935933284922255,"2":-0.060714824903085836,"3":0.08335903443966265,"4":0.07763569573618444,"5":0.27880868680062215,"6":0.026574570747783414,"7":0.005861728979847147,"8":0.21123397799194785,"9":-0.028036418376412967,"10":-0.3435430993513912,"11":-0.22424353031414573,"12":-0.31844023864362786,"13":0.08075957240495243,"14":-0.048712894445948896,"15":0.028725191618642957,"16":-0.2667905643281004,"17":0.33927418603837767,"18":-0.012662596375469017,"19":-0.27063460845341614,"20":0.49274533805072124,"21":0.562331408084982,"22":0.33211274219226083,"23":0.5877917942615977,"24":0.06641445254652756}},{"sx":5,"sy":5,"depth":1,"w":{"0":-0.15008507776504668,"1":-0.2549503553691623,"2":-0.15254645802907854,"3":0.02842561638937777,"4":0.4027517093149662,"5":0.06598859123687377,"6":0.06032847173330836,"7":-0.22214192417541273,"8":-0.013627620492721707,"9":0.032725255894430726,"10":-0.12839189359553566,"11":-0.17496099890098454,"12":0.006244739725568799,"13":0.20141756736421856,"14":0.5131872775762221,"15":-0.017910767097696585,"16":-0.04442699987260897,"17":-0.09477381528268783,"18":-0.21101409556384546,"19":0.07844930065864604,"20":-0.10004202961336227,"21":-0.17715788775775734,"22":-0.08689158404415166,"23":0.05674469760561705,"24":0.08006354474334264}},{"sx":5,"sy":5,"depth":1,"w":{"0":-0.17184571640918034,"1":-0.12498449200253543,"2":-0.15379515571144672,"3":0.07839067089008106,"4":0.04537134729582409,"5":-0.5583457391564474,"6":-0.4464611980593947,"7":0.24142536301337617,"8":-0.006268016564620805,"9":-0.04938458844373769,"10":0.48200711471080926,"11":0.10895580709836393,"12":-0.19420886698680206,"13":0.07966683887609273,"14":-0.07228418437278523,"15":0.21225776399421584,"16":0.32619508043747586,"17":0.3105538997802432,"18":-0.07789367075091447,"19":0.0691500096813392,"20":0.204072199025151,"21":0.41621850619270145,"22":0.09936397588525857,"23":-0.11201217850318795,"24":-0.07432701848205567}},{"sx":5,"sy":5,"depth":1,"w":{"0":0.11307579793548372,"1":0.6074842192137154,"2":0.4175007490440053,"3":-0.14148448855469592,"4":-0.008816849746957458,"5":-0.3803213558502904,"6":-0.017219831139638105,"7":-0.002761467518677892,"8":-0.21844714287181388,"9":-0.035109846781838275,"10":0.12830150403549465,"11":0.22210916634081115,"12":-0.030167983902593145,"13":-0.18741837661761704,"14":-0.018495114220510082,"15":0.003796074939008512,"16":0.04242155439776133,"17":-0.19544867031566587,"18":-0.009230331400514156,"19":-0.09092245493241782,"20":0.09892533192386835,"21":0.2170086034817567,"22":0.05922713726521106,"23":-0.2366088250880499,"24":-0.18990083159031954}},{"sx":5,"sy":5,"depth":1,"w":{"0":-0.03168302443552528,"1":0.17671353588683184,"2":-0.0399502589579867,"3":-0.1514231014603726,"4":0.04145183361141045,"5":-0.18842226282378013,"6":-0.09059796369169588,"7":-0.052898250959207055,"8":-0.28441644496147067,"9":0.14085572698166973,"10":-0.08666350634642873,"11":-0.3634642408340725,"12":-0.07102403402837199,"13":0.2047257614108173,"14":-0.17479585181218338,"15":0.32041697950484066,"16":0.7309087643295786,"17":0.4985493833938261,"18":0.4614846770492745,"19":0.2881112846630923,"20":0.07129817959929849,"21":-0.10169977096226879,"22":0.21885750975128093,"23":-0.28594816714374066,"24":-0.21401848405329676}}],"biases":{"sx":1,"sy":1,"depth":8,"w":{"0":0.019221300769557394,"1":-0.10840066626570793,"2":0.10214105297548433,"3":0.09078026200572918,"4":-0.05822527920638793,"5":-0.04465769360956261,"6":-0.21620381689035864,"7":0.1135052322800894}}},{"out_depth":8,"out_sx":44,"out_sy":44,"layer_type":"relu"},{"sx":5,"sy":5,"stride":1,"in_depth":8,"out_depth":8,"out_sx":40,"out_sy":40,"layer_type":"conv","l1_decay_mul":0,"l2_decay_mul":1,"pad":0,"filters":[{"sx":5,"sy":5,"depth":8,"w":{"0":-0.13012789966852464,"1":0.04906073108165227,"2":-0.06190723254697564,"3":-0.10818148844407381,"4":-0.22579816424029936,"5":0.017257329761042606,"6":-0.10542152806609316,"7":0.18981718960369612,"8":0.05231417961046144,"9":-0.03542788382479323,"10":-0.07010723776494744,"11":0.10459816866226807,"12":-0.10164007660013968,"13":-0.08080713872799375,"14":0.0639820440892106,"15":0.1683228564049166,"16":0.0514944913730647,"17":0.15988192343951016,"18":-0.11641816577833258,"19":0.07034434420280626,"20":-0.19604943680810533,"21":-0.05419601778607848,"22":0.03551209901411028,"23":0.08666602592635998,"24":0.20340494967483497,"25":0.04856682149079683,"26":-0.21983820277281577,"27":0.10603293800407823,"28":-0.14094960867357176,"29":0.09731344900608119,"30":0.11853184084151036,"31":-0.02400141865957394,"32":0.16970162064418934,"33":0.020563275377614227,"34":-0.09340583353811457,"35":-0.007787137627714145,"36":-0.0299784614219318,"37":-0.07124543353675131,"38":0.06573279979149271,"39":-0.022457775528682538,"40":-0.13934229845600468,"41":0.013443388928444364,"42":0.09052934320307711,"43":-0.04497404476716683,"44":0.050207116846076656,"45":-0.07737921657395098,"46":-0.08779252599171171,"47":-0.017401076843291962,"48":0.036423626623760745,"49":0.006395763660131331,"50":0.05532826701306489,"51":0.02357689464352663,"52":-0.020615843761774034,"53":0.07354042433620743,"54":-0.04449451946744141,"55":0.1547322740546519,"56":0.05342516365497819,"57":0.00896483065122,"58":-0.0657835441212728,"59":0.013445929760274904,"60":-0.025877266608992217,"61":-0.009361382973192387,"62":0.04683417443793541,"63":0.14210481469161718,"64":0.0453081507118341,"65":0.12500598566058313,"66":-0.17656879460310015,"67":-0.008056203024105365,"68":0.0755086471038039,"69":0.02612987419665855,"70":-0.020983191648615004,"71":0.02903683064063813,"72":0.10902714094975792,"73":-0.0959676639091022,"74":-0.10762495774921077,"75":-0.0897970419778681,"76":-0.07053469393445895,"77":0.03119734909728003,"78":0.013503795817817842,"79":-0.04754014480686754,"80":-0.15740852961176569,"81":-0.08674050858582905,"82":0.1445896339236094,"83":0.03908652265730071,"84":0.052793409705416246,"85":0.005674743115148005,"86":-0.07479432299138597,"87":0.04331813603447054,"88":-0.029478509522268187,"89":-0.12569435914612648,"90":0.18403463479798673,"91":0.07483102223484588,"92":0.031288821142923584,"93":0.02112166699327458,"94":-0.18832096802774287,"95":-0.020585183382507064,"96":0.07919570419056898,"97":-0.06668526293724703,"98":0.18053918559239984,"99":0.015947513594747085,"100":0.04688879227165626,"101":-0.014417455409635847,"102":0.009832385364274127,"103":-0.053140041909594614,"104":-0.08351714477291425,"105":0.109183553932515,"106":0.11422585696718883,"107":0.0022282465904163006,"108":-0.1029997409663693,"109":-0.07262081160973868,"110":0.08512893295277996,"111":0.020235695343062347,"112":0.05004059633148041,"113":0.007502781955827536,"114":0.08430621246498687,"115":-0.09533026218408663,"116":-0.2075962395575069,"117":-0.032777878104873905,"118":0.005410266076310184,"119":-0.1749953325732784,"120":-0.2296086303221667,"121":-0.10568717813023792,"122":-0.08387452022766165,"123":0.06448117980868864,"124":-0.14877457131556485,"125":-0.008955498305557304,"126":0.10387334851253352,"127":0.045656801879113404,"128":-0.22953925037934653,"129":-0.13993993917398348,"130":0.03507832689382466,"131":0.20311132690751105,"132":-0.23440814232723184,"133":0.10522624001764663,"134":-0.04741172263754294,"135":-0.045930369298133,"136":-0.12948397832470765,"137":-0.1707418477579685,"138":-0.05165466795754562,"139":0.16248507851086608,"140":-0.22662738923956943,"141":-0.06189190230472633,"142":0.057906868133419005,"143":-0.07512182390935743,"144":-0.0024531058653471686,"145":-0.09757350595932261,"146":-0.00033268802350494363,"147":0.0469261261975172,"148":-0.07253977607989716,"149":-0.16676420959022192,"150":0.02157743222320719,"151":-0.1505751372423912,"152":0.10484710011707762,"153":-0.044377683846278874,"154":0.16410524320161543,"155":-0.08172369213258517,"156":-0.19077346882828908,"157":-0.07127376039156043,"158":0.06793500896161458,"159":-0.20024919893421672,"160":-0.02334768985601476,"161":0.07329584331422526,"162":-0.038939932716091405,"163":0.022502112841282007,"164":-0.044091988100714706,"165":0.0535625756444158,"166":0.020885841807220216,"167":0.11055225036004189,"168":0.005590121341849716,"169":-0.11112252097787387,"170":-0.15370480918645688,"171":0.05036786723209386,"172":-0.23504094659535443,"173":0.10971763312218485,"174":0.3415114642947726,"175":0.15340783428921387,"176":-0.0349448796741676,"177":-0.042574161290131876,"178":-0.22196077320455765,"179":0.031136133601230655,"180":-0.11866746367672408,"181":0.0410241755479889,"182":0.25233919113454817,"183":-0.006540257175925949,"184":0.01112793852250811,"185":0.07231035196934037,"186":-0.08380334981337013,"187":0.019463253227444563,"188":-0.18700779730892586,"189":-0.01411215562990073,"190":0.23702788487982798,"191":0.09855355407428004,"192":0.11274947579704551,"193":0.004351484289453831,"194":-0.03334888725720178,"195":0.10137073521585677,"196":-0.16323224496256403,"197":-0.02244622287808715,"198":0.16530440056456233,"199":-0.046690224756552406}},{"sx":5,"sy":5,"depth":8,"w":{"0":0.055045418477762204,"1":0.12548755759405383,"2":0.06224787959300735,"3":0.007664248756594808,"4":-0.005061387015849007,"5":-0.03555721871198171,"6":-0.007385439189335933,"7":-0.08945770419071931,"8":-0.0057107730482368144,"9":-0.07182959904373473,"10":-0.18315924003369674,"11":-0.07311203609236784,"12":0.08426102781526164,"13":-0.07979841096382262,"14":-0.15738659153097964,"15":-0.06776197417712362,"16":-0.0005886870237440167,"17":-0.01093416561595232,"18":-0.030041658235793064,"19":-0.3774454587798754,"20":0.018945365107238113,"21":-0.05788613784022188,"22":-0.08846739180323208,"23":-0.04049608182803329,"24":0.2415591553105122,"25":-0.07946695341069022,"26":0.06267009776674635,"27":-0.27274942623071496,"28":0.07342124275994073,"29":-0.03731850891121486,"30":-0.10011610641122638,"31":-0.1360797095348113,"32":0.013395225609657696,"33":-0.004546658008220528,"34":-0.08079554376486847,"35":-0.21783425779954352,"36":-0.004257235150158262,"37":-0.05904602161711275,"38":-0.10882066644588878,"39":0.014814970289750219,"40":-0.1053484969718363,"41":-0.09581917168346349,"42":-0.252953078249443,"43":0.18765661465248673,"44":-0.12252560671473182,"45":-0.005837473490270747,"46":-0.053220277495576625,"47":0.007889223105800362,"48":-0.006282938001907686,"49":-0.005484766052031735,"50":-0.17697893246096189,"51":0.13923307013749642,"52":-0.07934071372460225,"53":-0.07890692925551183,"54":0.036885558501569715,"55":-0.18617636340834942,"56":-0.08697954446267549,"57":-0.0282290873037403,"58":-0.08981943638479845,"59":0.08531014131508312,"60":-0.035501259799550405,"61":-0.09928616541549662,"62":-0.04860927691831268,"63":-0.10947893941341307,"64":0.040018231326649986,"65":-0.04133174715864391,"66":-0.014585055617486952,"67":0.0074431949308820635,"68":-0.06650677804685194,"69":-0.16218463632236257,"70":0.040122052867634095,"71":-0.13087923383158495,"72":0.007144597001705326,"73":-0.14156326163329208,"74":-0.03424331240565479,"75":0.07650324426677393,"76":-0.060970717322551625,"77":-0.13602436110417615,"78":0.07306503859055904,"79":-0.19809159305447704,"80":-0.023459925627894958,"81":-0.05815009261090565,"82":-0.02803060872419996,"83":0.10564842421315199,"84":-0.034691923591419656,"85":0.01114872167340477,"86":-0.06688099110294361,"87":0.10789019765510889,"88":-0.026414255542981026,"89":-0.12910460338836713,"90":-0.15743736404071543,"91":-0.047291113837577836,"92":-0.04818906679636049,"93":0.0109587832035933,"94":0.020419597537219315,"95":0.03424419893210759,"96":-0.029353388508517167,"97":-0.11155116648284702,"98":-0.09059611221576298,"99":0.023592517274576705,"100":-0.12232338056177876,"101":-0.05420171122179017,"102":0.08804798214929073,"103":0.052360317317337327,"104":-0.06321549439112803,"105":0.07705507446110427,"106":-0.12974211230015564,"107":0.010666276741242105,"108":-0.12687771301519163,"109":0.058377984507590616,"110":0.02275659616808234,"111":0.2086899699325412,"112":-0.05781797186060429,"113":-0.09873171875068362,"114":-0.06810478366790354,"115":0.20621947054529988,"116":-0.17129532710859333,"117":-0.011598690592867021,"118":-0.07727876275377385,"119":0.11286544226918643,"120":0.09737269490771017,"121":0.025257730952029874,"122":-0.17266150859102417,"123":-0.24243504762355358,"124":0.007385627640968321,"125":0.06322011919371127,"126":-0.06730379808499061,"127":-0.07583924809786391,"128":-0.12044558959182977,"129":0.09626481472483045,"130":0.02082210614536293,"131":-0.19798834114420125,"132":-0.1570602885631519,"133":0.14065917344587908,"134":0.020472808049814255,"135":0.06676366866999366,"136":-0.061781833331301474,"137":0.17503500750742426,"138":-0.11676466191238306,"139":-0.13051240153432292,"140":-0.16344589916734492,"141":0.03616333754222861,"142":-0.10919057795546287,"143":-0.03038819878433825,"144":-0.017664647826264982,"145":0.05082320567551718,"146":-0.24979540746028023,"147":-0.10431639275896731,"148":-0.16568581213793412,"149":0.14851935757061477,"150":0.09015081770266335,"151":-0.019315463497237964,"152":-0.0622301411245491,"153":0.08858919669070406,"154":-0.17370526656021437,"155":-0.1272901200786192,"156":-0.12856063038178753,"157":0.08124810708536487,"158":0.055073955868407305,"159":0.10652239330570017,"160":-0.14132244423369875,"161":-0.0678517802510807,"162":-0.146571303904568,"163":-0.0332083305060668,"164":-0.04793767887618363,"165":-0.08362720846163652,"166":0.006533562402453204,"167":-0.08235076254949822,"168":-0.00818190619020525,"169":-0.11265925175255456,"170":-0.13016275262139915,"171":0.0020778814401322524,"172":-0.08009792892552252,"173":-0.10376947363409088,"174":-0.06546087429411603,"175":-0.039463391005853936,"176":-0.07180668110675496,"177":-0.1122441450025881,"178":-0.16648330221946714,"179":0.11156399683244057,"180":-0.0467831806297711,"181":-0.03548514386387064,"182":-0.0029927999398925344,"183":-0.06553832703764406,"184":0.048674385952633924,"185":-0.12209961470951841,"186":-0.15827394899973288,"187":-0.03292970668143564,"188":-0.10621531730034543,"189":0.13502963531152087,"190":0.03947643419604732,"191":0.04875670707246503,"192":0.06701598435171038,"193":0.05503467403724742,"194":-0.12373924481178232,"195":0.10429886505973639,"196":-0.011965902157800306,"197":-0.06446995670348174,"198":-0.034877606441091356,"199":0.03896304563049718}},{"sx":5,"sy":5,"depth":8,"w":{"0":0.24351817824960956,"1":0.08997200252982218,"2":0.024949904747902242,"3":0.0688997172713575,"4":0.12113052995669839,"5":-0.0025631185559483374,"6":0.01748773014964809,"7":0.018891824435673357,"8":-0.08038774201377887,"9":-0.1305974896179833,"10":0.0294252533730749,"11":0.06305597971571467,"12":0.25380077882307395,"13":-0.07937372268455134,"14":0.06755335938499449,"15":-0.08292191999789668,"16":0.05611373847460242,"17":0.05374135086993724,"18":0.04845929219055279,"19":-0.03801902849900342,"20":0.058413323798643134,"21":-0.13938724667805827,"22":-0.06061741788283478,"23":0.05674987585442519,"24":-0.0955386275650449,"25":-0.08269668794990903,"26":0.1508017911384655,"27":-0.11728192321078722,"28":-0.1726224670968826,"29":-0.17482467403221968,"30":-0.04656447312431989,"31":-0.06237092177946476,"32":0.07340725771212357,"33":0.10830312378188044,"34":-0.07981762759869958,"35":0.08497870046948312,"36":0.03181638954494307,"37":-0.24817424171476618,"38":-0.07773337825617681,"39":-0.06092739820827274,"40":0.023804908973565637,"41":0.10281491247218869,"42":0.0020072478152302377,"43":-0.029416167451208685,"44":0.0967493805647137,"45":-0.17910703964723165,"46":0.09719589145273591,"47":-0.36786113066508946,"48":-0.229135297448148,"49":-0.08878026207051537,"50":0.09816655240572109,"51":-0.15463231790893495,"52":-0.07424384127710323,"53":-0.10875472874025102,"54":0.11268516824564315,"55":-0.343495650969132,"56":-0.05014026483364777,"57":0.10850183378141577,"58":0.09546162412470877,"59":-0.0695189673450133,"60":0.06487002740160838,"61":-0.1089418888867014,"62":0.09282458829794246,"63":-0.16442029024794452,"64":-0.11183380326564217,"65":-0.10446384715277811,"66":-0.028653173041467337,"67":-0.19418718560186177,"68":-0.10501200231933468,"69":-0.1657372469725611,"70":-0.03749752671533246,"71":-0.12340801853066789,"72":0.011557214118913589,"73":0.01350710783904573,"74":0.16455729577573913,"75":-0.10313932490046628,"76":-0.02259625357368381,"77":-0.11226508803775753,"78":0.1218059785004334,"79":-0.15810027645521646,"80":-0.06131221131881211,"81":-0.09113594831267438,"82":-0.024197823810078175,"83":-0.05783847507626212,"84":0.04490160849858002,"85":-0.0825459165348132,"86":0.0955981175949936,"87":-0.23709253514395448,"88":-0.17633549702781326,"89":-0.04522996195816727,"90":0.19238876270077915,"91":0.0343729885298797,"92":0.028775573540704216,"93":-0.23210090136665082,"94":-0.026114983405873902,"95":-0.33396494398768833,"96":-0.06952118022672764,"97":-0.12378703409972283,"98":0.08974624594522225,"99":0.043517355623813966,"100":-0.060619092485149684,"101":-0.06869496346068596,"102":-0.0116138852761014,"103":-0.25969942341403796,"104":0.05292047122286538,"105":-0.04042086983652381,"106":0.10196647174099559,"107":-0.06354534448230463,"108":-0.09577317646610979,"109":-0.04677197072191786,"110":0.03459229536542754,"111":-0.31692696064648024,"112":0.13926072848232537,"113":0.0643126407593184,"114":0.11883899529447484,"115":-0.09360905072276167,"116":-0.03054829945837939,"117":-0.12385012847503668,"118":0.02947445173621549,"119":-0.16897055012904783,"120":0.15623415783665034,"121":0.03227275229506151,"122":-0.006463533843312573,"123":-0.27549362657137483,"124":-0.0874501300780512,"125":-0.18184565913785625,"126":0.1520077837110164,"127":-0.22980767371611538,"128":0.11150189691688134,"129":-0.06305031395551094,"130":0.03751397919552652,"131":-0.26618936509881586,"132":-0.013310061632695156,"133":-0.0784442015307852,"134":-0.05220394699337501,"135":-0.26673317140237207,"136":-0.049377228728984715,"137":0.026802359357258696,"138":0.15101024629149562,"139":-0.3116170234717448,"140":-0.06714629864477982,"141":-0.13017524794249002,"142":-0.1388419506007655,"143":-0.2814325466530802,"144":0.0683116987264438,"145":0.01013441743763352,"146":0.11458256147038706,"147":-0.1066358862877033,"148":-0.1613573760092061,"149":-0.21204743840878232,"150":0.10667832148032612,"151":-0.14663803654233323,"152":0.04605831937279,"153":-0.05825716593252771,"154":0.10227124198783935,"155":-0.1337030681749223,"156":0.005501871943390766,"157":0.0008008900369842246,"158":-0.162868298515903,"159":-0.124134974242833,"160":0.07636210302912871,"161":0.07275323302217811,"162":-0.004382828828792544,"163":-0.42036490323595627,"164":0.0026304930523365936,"165":-0.10369372533817481,"166":0.023435518987724138,"167":-0.26146111280690054,"168":0.17280488113291503,"169":0.09728829297717106,"170":0.05968996176880457,"171":-0.2205440143539654,"172":-0.028490694496288906,"173":-0.09196989072017617,"174":-0.07326376395885063,"175":-0.24506596773393094,"176":0.048968439849612584,"177":-0.12927865784530435,"178":0.13223530552238605,"179":-0.28153899960631973,"180":-0.06592720895903531,"181":-0.24662990052559908,"182":-0.20815316339967918,"183":-0.13880842837802065,"184":0.20066600308818472,"185":0.04052511864987476,"186":-0.016828964360099032,"187":-0.08235819332624746,"188":0.03626412994164859,"189":-0.05924550752717488,"190":0.06130943941144154,"191":-0.1776606189924411,"192":0.11749980032549802,"193":0.1377116357586308,"194":0.004871870332914692,"195":-0.19792095098283408,"196":0.04590091310339846,"197":0.07961282390238797,"198":-0.15791061517067442,"199":-0.12086549968155798}},{"sx":5,"sy":5,"depth":8,"w":{"0":-0.2440997376956185,"1":-0.18787782581676474,"2":0.08288428500127716,"3":0.11594112964309648,"4":0.07729891661731511,"5":0.02960794762854215,"6":-0.07506502389214183,"7":-0.05288899710259711,"8":-0.2422026782471696,"9":-0.10428485509524214,"10":0.16392760741139728,"11":0.129845672273795,"12":0.01709916315656057,"13":0.07385181024263102,"14":-0.03169732943427524,"15":0.08640145126066544,"16":-0.24245674945195286,"17":-0.16653841356147076,"18":0.11233604765146962,"19":0.2847605021718627,"20":-0.12261344041382402,"21":-0.10993978526763057,"22":0.02281296434849605,"23":0.01695253695127967,"24":-0.3569321505188238,"25":-0.23879473815670477,"26":0.10853707014182573,"27":0.25662773310288056,"28":-0.15826135051923831,"29":0.13028909028368962,"30":-0.12259042404508089,"31":0.13601329922955907,"32":-0.29844893501464387,"33":-0.11256417172939946,"34":0.1801769644764625,"35":0.1938003917691291,"36":-0.12679850460232772,"37":0.005971843266145863,"38":-0.2001713591382403,"39":0.07743953378379685,"40":-0.168903878591293,"41":0.03789841029127171,"42":-0.12700073539498885,"43":0.04938899978686775,"44":0.0764706392285596,"45":-0.052800450941888226,"46":0.12463277270321615,"47":0.11453184814570984,"48":-0.23647863635219177,"49":-0.015489355318152242,"50":-0.12027868816808537,"51":0.2189861001492723,"52":-0.0557974249360495,"53":-0.018009435638731065,"54":0.12432418298131359,"55":0.03302247542228205,"56":-0.25290663552892934,"57":-0.08317183138105147,"58":-0.042682772070756436,"59":0.27764267796823455,"60":-0.07247129542932002,"61":0.09022154299774893,"62":0.2577207606020309,"63":0.13790569538542033,"64":-0.2115808418751209,"65":-0.13185870627065782,"66":-0.16121130220685748,"67":0.09667289284462326,"68":-0.20041651372025204,"69":-0.10555477323921048,"70":0.00801079149171788,"71":0.07159474280268018,"72":-0.03173169664014511,"73":-0.011090531402188648,"74":-0.06685790151561835,"75":0.231376224467418,"76":-0.11826714953635291,"77":0.04526893140778886,"78":0.0008343581172805617,"79":0.015617880567204043,"80":0.020635798491268825,"81":-0.025386115214127012,"82":-0.05493053367773678,"83":0.14527390417898559,"84":-0.036768450262011934,"85":-0.013332485445061926,"86":0.011632403874716587,"87":0.05589368397820833,"88":0.04937083217913862,"89":-0.06264193105848316,"90":-0.003414454863941978,"91":0.16583867994981627,"92":0.0693068443034406,"93":0.04331445110647176,"94":0.040159191154307695,"95":0.11883056623652223,"96":-0.009032380987547843,"97":-0.17214256612248277,"98":-0.05827403157100926,"99":-0.054417668917232265,"100":0.06842460520082923,"101":0.050597185182036014,"102":0.0740069811304215,"103":0.10912598824432482,"104":0.0011994064815999054,"105":-0.058204625775791254,"106":-0.0008210182283367904,"107":0.06514514819209641,"108":-0.11974887880587905,"109":0.07773089310757608,"110":-0.04859115882488962,"111":0.09240402291332857,"112":-0.002236685600053979,"113":-0.03287455352608709,"114":-0.18970235657076098,"115":0.07029210239588561,"116":-0.027017606667814272,"117":-0.013131776719624616,"118":-0.1479771061642125,"119":0.12356326153290281,"120":0.02318209480945188,"121":0.12332752474323525,"122":0.006553141525951958,"123":-0.12913166862723316,"124":0.02895732746730659,"125":0.07662662841192025,"126":0.13262812767967003,"127":0.02511401427717481,"128":0.08436025262254769,"129":0.06698886178932482,"130":0.03485448348535559,"131":-0.05040681214102322,"132":0.032445458750188276,"133":0.046857588350023245,"134":-0.05470717415588502,"135":0.08142356743825471,"136":0.05891049028211506,"137":-0.021829678350101904,"138":0.06808778709195173,"139":0.058633110997042465,"140":-0.008111091281715733,"141":0.0004448209311261372,"142":0.03226735541855345,"143":-0.023170239653148867,"144":0.06748092034191223,"145":0.07107664304736809,"146":-0.06531199536679867,"147":0.001084002721032569,"148":-0.05805300087546462,"149":-0.016873225605413572,"150":-0.21540082773129107,"151":0.05874549149350834,"152":0.00809207626973841,"153":-0.01710744749425722,"154":0.06371849590424332,"155":-0.01648571702897529,"156":-0.22924470992437712,"157":0.06130933632912317,"158":-0.30931720936888735,"159":-0.014978927503242458,"160":-0.03853697543161474,"161":0.07881313423728935,"162":0.15078959073846762,"163":-0.032499023174574426,"164":0.119948223278662,"165":-0.15577705653400659,"166":0.19865799464821873,"167":-0.04585295021965558,"168":-0.02009374569800247,"169":-0.00587394849343696,"170":0.051031794798957246,"171":0.03910434562050931,"172":0.031790603193594384,"173":-0.10805285206750029,"174":0.007445187702693233,"175":-0.21014100251991083,"176":-0.07071468602337909,"177":0.1205003202984391,"178":0.02729540026927653,"179":-0.004549336154673658,"180":0.0385530655521532,"181":-0.14473535356992448,"182":0.02792068343229145,"183":-0.005165848223988024,"184":0.06498406955087271,"185":-0.04378390063096572,"186":0.05138762574043297,"187":0.026980953720465967,"188":-0.007509620794931799,"189":-0.06391588824683314,"190":-0.11878029379355903,"191":-0.1266297647595489,"192":-0.07456041566642077,"193":-0.016191108267205954,"194":-0.047121643094001256,"195":0.026617947617034468,"196":0.02937181141859659,"197":-0.19010532041891706,"198":-0.061055819189671026,"199":-0.1238119629240262}},{"sx":5,"sy":5,"depth":8,"w":{"0":0.023428354177119953,"1":-0.08907937266400916,"2":-0.04118787445529946,"3":0.1761754387284881,"4":-0.15857992246542185,"5":0.023076697041850773,"6":0.08512375039804143,"7":0.17842577997673428,"8":-0.022259926716849503,"9":0.029329943194736002,"10":0.04404995179176265,"11":0.14708815432560968,"12":0.07611774086805895,"13":0.09426256455246028,"14":-0.04639988463872365,"15":0.08595494186734667,"16":0.013674203052806392,"17":-0.02197525417542421,"18":0.11433310344471573,"19":0.08174011786300164,"20":0.13059481792243927,"21":-0.015503541426879224,"22":-0.007444132839558184,"23":0.11476366112131768,"24":-0.06780164790646642,"25":-0.016197056998631425,"26":-0.04101952591613256,"27":0.09389929940276154,"28":0.11110841484827985,"29":-0.11938180753102146,"30":0.0702440551700297,"31":0.12296185607763142,"32":0.14132560399143398,"33":-0.037849332267195626,"34":0.05941428695772679,"35":0.03806473007550828,"36":-0.015050641602211175,"37":-0.19063404391301608,"38":-0.1477316389295583,"39":-0.0910695283981303,"40":-0.057197446231495246,"41":-0.09519730554111577,"42":0.1432739873796395,"43":0.1693672091332996,"44":0.03359328826778838,"45":-0.033433960380654264,"46":0.10145056256729579,"47":-0.1347133219311748,"48":-0.03779722793439388,"49":0.15669660818482,"50":0.10837404098849368,"51":-0.2019475565149006,"52":-0.036988725789696246,"53":-0.11855952141387698,"54":0.07547536760293687,"55":-0.12509929502491476,"56":-0.0720786606918633,"57":0.05449619495890955,"58":0.10099279190037812,"59":-0.02731758410818505,"60":-0.09886830529492668,"61":-0.1031451177400803,"62":0.15682239527300487,"63":-0.13876505360789215,"64":0.09589654193436184,"65":0.06806748640887131,"66":0.2792942027383687,"67":-0.0906501883351352,"68":-0.013721405044917501,"69":-0.22006297366134214,"70":-0.04276820705611213,"71":-0.21975355442973615,"72":0.19099798109226943,"73":0.15102742031414237,"74":0.1653489075677937,"75":-0.14729288987808795,"76":0.032678439297129096,"77":-0.27099000105163656,"78":-0.05376300035537876,"79":-0.00442706705587706,"80":0.021441179581014373,"81":-0.12064961653628606,"82":0.0617542756989797,"83":0.0010819471516437568,"84":-0.26740423261779883,"85":-0.2128085707488744,"86":0.23179332853431348,"87":-0.2690298549866653,"88":-0.072598773084201,"89":-0.10193390809161167,"90":0.055051917790534956,"91":-0.045825237856906745,"92":0.06312615043306882,"93":-0.1686100956819814,"94":0.1454358816076041,"95":-0.45769824347274296,"96":0.06335855076653701,"97":0.07435037536636195,"98":0.027464466172515866,"99":-0.07661056966778812,"100":-0.02141165365968504,"101":-0.1710343183357495,"102":0.12688398964176048,"103":-0.0956342181719741,"104":0.008557599591174029,"105":0.03922192512836719,"106":0.2237746776862078,"107":0.01813090608634433,"108":0.06333559610621547,"109":-0.19215936313045565,"110":0.13098636284688597,"111":-0.26342587926163225,"112":0.20518449524071591,"113":-0.018244498037762822,"114":0.10467420548456187,"115":0.0012048215619768457,"116":0.03772819024081922,"117":-0.1378201980363297,"118":0.05921295936336008,"119":-0.32637806212612674,"120":0.09191159265701591,"121":-0.06748665555966608,"122":-0.127664174491949,"123":-0.05483743498875907,"124":-0.18441101027517856,"125":-0.14250572814431842,"126":0.13028619439440417,"127":-0.2805462854046858,"128":0.04777089131285479,"129":-0.12039062447100551,"130":0.0807994968125067,"131":-0.15507856227110697,"132":-0.14811968181334811,"133":-0.2778967333703044,"134":0.22208542952264074,"135":-0.13656132651117364,"136":-0.039839695438370855,"137":0.15941583709538068,"138":-0.04970484315506627,"139":-0.14280745847214465,"140":0.0751129064806789,"141":-0.04092251458196882,"142":-0.04010288303237289,"143":-0.19475898223071575,"144":-0.11605014124840403,"145":0.13989342259523696,"146":0.17786653322742582,"147":-0.3359866804202445,"148":-0.028091085253875266,"149":-0.023048597829223274,"150":0.034717799943304845,"151":-0.10221731438181361,"152":0.1177768239306718,"153":0.2149339071753818,"154":-0.07042442370293239,"155":-0.2336710995107972,"156":0.11266520489504586,"157":-0.07177821401719596,"158":-0.09498785379813231,"159":-0.2230055008400543,"160":-0.03615215861000095,"161":-0.009458590905640971,"162":-0.08015655429570952,"163":-0.24907995564044394,"164":-0.2491553535133846,"165":-0.23080192845486677,"166":0.02724725432616247,"167":-0.31941455145894665,"168":0.0809244488807126,"169":-0.015608475701284782,"170":0.026762676567179747,"171":-0.2898646660465581,"172":-0.21741693721526284,"173":-0.21624784659640434,"174":0.06712840840050908,"175":-0.3743104091740453,"176":0.041022911617127567,"177":-0.03177672250518995,"178":-0.01917914333810698,"179":-0.2628612613045543,"180":0.01843776211512614,"181":-0.2110880159921685,"182":-0.007558739202449091,"183":-0.2690313739325938,"184":0.15856711647709232,"185":0.19809485267942173,"186":0.16658492209789277,"187":-0.4096718126117338,"188":0.002170928340912758,"189":-0.13413599268094498,"190":-0.10019929908677151,"191":-0.42458665614570795,"192":0.09933694662359724,"193":0.09311208245723092,"194":0.09439328921146228,"195":-0.27908629615591707,"196":0.04929773655446662,"197":-0.03835476535667873,"198":-0.1056367927575205,"199":-0.17772388678073034}},{"sx":5,"sy":5,"depth":8,"w":{"0":0.04484388821986574,"1":-0.09187665680381547,"2":-0.10999169579714825,"3":0.02159775966600823,"4":-0.36615343108807596,"5":0.009803767663323842,"6":-0.10167600639985817,"7":-0.2232042074687915,"8":-0.018555392183193346,"9":0.037082197367495955,"10":-0.06310003206202709,"11":-0.2527202527568081,"12":-0.2274594945423661,"13":0.0405473907260702,"14":-0.10618742650699615,"15":-0.056422735933418615,"16":0.12344840439221742,"17":-0.014975543019319556,"18":0.06246368094031856,"19":-0.15883565644575592,"20":-0.3029096861466827,"21":0.07475796457046191,"22":-0.07333022103687824,"23":-0.1440633366329043,"24":0.05426790656912965,"25":0.11693714829757859,"26":-0.1868819759342743,"27":-0.07157274433289987,"28":0.07001642835557158,"29":-0.147191227913239,"30":-0.08811639891511949,"31":-0.32378806002130317,"32":-0.18628813579202924,"33":0.011493159977879313,"34":0.06390817795697866,"35":-0.25303351089184284,"36":0.24533193155923128,"37":-0.12015540494608648,"38":-0.10032110670425952,"39":-0.0777656213309048,"40":0.049804042096063365,"41":-0.02648489001142113,"42":-0.0495374791239233,"43":0.07545342123274586,"44":-0.2553513050270725,"45":-0.050544685923532576,"46":0.06671831674388409,"47":-0.03400042512412317,"48":0.06484073899013854,"49":0.033599527787056584,"50":0.07134337611381827,"51":-0.09471525216682523,"52":-0.21987873935468397,"53":0.13975182457124946,"54":-0.156883639829471,"55":-0.06719361850174958,"56":0.004255240467193666,"57":0.09525366946137356,"58":-0.0022871558858534565,"59":-0.28078296499479166,"60":-0.23556176367940868,"61":0.07168472971071099,"62":-0.10018485528573227,"63":-0.20758868161023072,"64":-0.053437836589204105,"65":0.10100641710909598,"66":-0.11269823653111359,"67":-0.09652220971188744,"68":0.029531199189822492,"69":-0.1109806548759808,"70":-0.2163047327979874,"71":-0.048434280854860075,"72":-0.09953098559648553,"73":0.10932627760130478,"74":-0.14355520685867895,"75":-0.15772715029215825,"76":0.231353726545821,"77":-0.19839903132434583,"78":-0.1175415366678315,"79":-0.16313415732047418,"80":0.11231584812528514,"81":0.0040733607786303284,"82":0.031339720253996374,"83":0.056529909588661546,"84":-0.1702543949987431,"85":0.10877210327723968,"86":-0.07902480761223517,"87":0.18366839805265983,"88":0.07773518225251046,"89":0.16142469930059059,"90":-0.05958366645326386,"91":0.06812613637739792,"92":-0.12855043275630493,"93":-0.18458505241907133,"94":-0.16006710449477354,"95":-0.005616867846735767,"96":0.09411253416756331,"97":0.1388418640634844,"98":0.023399165393573597,"99":-0.17674010972536006,"100":-0.06658185294786266,"101":-0.10277319751185694,"102":-0.2240521766182301,"103":-0.07593009353250742,"104":0.009037340926219425,"105":0.07147951135140759,"106":0.021665538246661505,"107":-0.2607722143584086,"108":0.03991430454284678,"109":-0.0024283845205881798,"110":-0.18833928723366986,"111":-0.23263789954235056,"112":-0.047302512834880135,"113":-0.1206100498915111,"114":-0.1289058902778033,"115":-0.09787491881805943,"116":0.13444146086632444,"117":-0.031686507865653836,"118":-0.3405542188988133,"119":-0.095135064584278,"120":-0.0029853902127645977,"121":-0.05750455845139729,"122":0.07277467496783303,"123":0.14745104769825143,"124":-0.17101921342526694,"125":0.032844050990150586,"126":-0.22821127614068343,"127":0.09545327112605576,"128":0.02586038802846607,"129":-0.14676096910781666,"130":0.1622501319072692,"131":0.07704219689344513,"132":-0.20481779412228446,"133":0.010276629173285892,"134":-0.16573733340362956,"135":0.056601350087500925,"136":0.1860419359490581,"137":-0.08025735680158422,"138":0.029626185660935337,"139":-0.05861783340202947,"140":0.06760832031910852,"141":0.17378334390351557,"142":-0.107074097280685,"143":-0.009084155929813533,"144":0.12905522110150866,"145":-0.0698643860753887,"146":-0.12643441675322198,"147":-0.035509273314246845,"148":0.07119644076818402,"149":0.2757998361046857,"150":-0.1788018465759425,"151":0.02283424041845997,"152":-0.10473945815604335,"153":-0.19283848150436836,"154":-0.2153985322194798,"155":-0.04866926922665789,"156":0.10313683027775143,"157":0.012113143162020381,"158":-0.14074573226551793,"159":-0.07554030171378906,"160":-0.04729003152103753,"161":-0.07638845557077505,"162":0.1590925294851099,"163":0.2564582369781489,"164":-0.0929595917247255,"165":0.026761462850154124,"166":-0.14793625694483623,"167":0.16065031762409093,"168":-0.05827102958875863,"169":0.003438466894992946,"170":0.041869296604576244,"171":0.12372660422470891,"172":0.04487505394478419,"173":0.1061430098162064,"174":-0.051878943650632746,"175":0.19738424998314633,"176":-0.015892173583250988,"177":-0.22134769138280944,"178":-0.032787347030871626,"179":0.2952695874930975,"180":0.007818742615276443,"181":0.12615163077744912,"182":-0.12496004828664903,"183":-0.005535678465494166,"184":-0.014221360921023593,"185":-0.17316510546743258,"186":-0.09306952232347149,"187":0.042983369075718945,"188":0.11000143795153045,"189":0.18866664413210796,"190":-0.0673498648673155,"191":0.2169338242539177,"192":-0.014788668554245866,"193":-0.30583389665894617,"194":-0.22353094695115192,"195":0.060242540525998596,"196":0.023091708490970864,"197":0.16767759979673066,"198":0.015086765517926943,"199":0.21430479696534555}},{"sx":5,"sy":5,"depth":8,"w":{"0":-0.24216831726283078,"1":0.014944447663004927,"2":0.22490606406554486,"3":0.1705082643778133,"4":-0.00654972034822909,"5":-0.07057599592525532,"6":0.07832421986505785,"7":-0.019677020031506284,"8":-0.2691140763618645,"9":-0.1316394462473157,"10":0.08298914901342369,"11":0.18344156667571312,"12":-0.09634082067257642,"13":-0.031002714023839473,"14":0.10555864244534663,"15":-0.07007349886662047,"16":-0.01258428107539635,"17":-0.0985373381067246,"18":-0.007684028564890454,"19":0.26071532285705296,"20":-0.0167926656338548,"21":-0.06203023929413288,"22":0.09651957469605911,"23":0.10708181721185109,"24":-0.05377696378451933,"25":-0.07995191637330554,"26":0.016025026237792356,"27":0.05461884262243661,"28":-0.23860134528278953,"29":-0.005770898959609718,"30":0.19045742544426641,"31":-0.009224386170210819,"32":0.032552063322442364,"33":-0.07046916713763705,"34":0.06759795647967022,"35":-0.019331544567013588,"36":-0.12597327645053544,"37":-0.10151429352401535,"38":0.13962735683016475,"39":-0.09324377682623239,"40":-0.03076961976948459,"41":0.03739630411960511,"42":-0.11333282873335543,"43":0.03703316363177139,"44":-0.05559401577653997,"45":0.1230298354862981,"46":-0.02414140083283276,"47":0.22093153217669978,"48":0.07844129925621317,"49":0.032990457473546106,"50":-0.07619496318806696,"51":0.059491551765437155,"52":-0.1591575376313295,"53":0.16766067234950294,"54":-0.0044435852116116335,"55":0.1960140697308923,"56":0.13128304705211982,"57":-0.17095563894304708,"58":-0.04438004621062172,"59":-0.16365983333278197,"60":-0.18809548996618672,"61":0.13288716265459843,"62":0.14982460472455,"63":0.04643315058337047,"64":0.1731471510095852,"65":-0.0705074669625631,"66":-0.15444557129724332,"67":-0.14730997329274384,"68":-0.08563654842361917,"69":-0.013254233345534733,"70":0.08182753322919771,"71":0.12027976977480224,"72":0.22031113202615082,"73":-0.04542000927929803,"74":-0.04534455327904473,"75":-0.11773036626478661,"76":-0.14351809963809165,"77":0.05095348559044858,"78":-0.12485564638990247,"79":-0.1468717556206463,"80":-0.04959076589344956,"81":0.12723773863521542,"82":-0.1466647422655627,"83":-0.29620494115837526,"84":0.09713414773014871,"85":0.05103674994478479,"86":-0.0736396234014377,"87":0.1105285155816618,"88":0.17208172798830532,"89":-0.09838688611338589,"90":-0.07748777872836458,"91":-0.15792446503163277,"92":0.014264090270770158,"93":-0.013216239557066762,"94":0.07778070488121834,"95":-0.08081278633727032,"96":0.03013628007184601,"97":0.08559384685494342,"98":-0.0052408471140451135,"99":-0.08671156012582856,"100":-0.11952758222381955,"101":0.19010486895647763,"102":-0.019006495366846506,"103":-0.1646684370669374,"104":0.09808882788483773,"105":0.10226680500493801,"106":0.12833325075572563,"107":-0.09877537044751386,"108":-0.11081827601060357,"109":0.03534988638917266,"110":0.04089504044208436,"111":-0.1295792374736053,"112":0.08049908730626676,"113":0.02536987722295512,"114":-0.02552657154711309,"115":-0.018349111782459418,"116":-0.16073612564762058,"117":-0.12015396684925356,"118":-0.013037128864181244,"119":-0.1067683793976929,"120":0.14116705863740242,"121":-0.23704208124399548,"122":-0.11892052283704778,"123":0.03806709648399346,"124":-0.14517965652986825,"125":0.10662065939136992,"126":-0.12771482171087845,"127":-0.06556431217051131,"128":-0.01592644699854331,"129":-0.03721059996750036,"130":-0.1240871454279181,"131":-0.04876434357567724,"132":-0.05516182710672695,"133":0.10267721396554766,"134":0.020590402805104154,"135":-0.13631718048157423,"136":0.026192557908915413,"137":0.1165164033862579,"138":0.06378976039313487,"139":-0.07199203980396034,"140":-0.007382081165981879,"141":0.045913018613782844,"142":0.07925124089642313,"143":-0.2189378686302093,"144":0.1023030232176702,"145":0.1594496511522321,"146":0.0860555094609984,"147":-0.028992861098266928,"148":0.051922781111842085,"149":-0.05944104879007511,"150":-0.22790588068488593,"151":-0.0931943067868767,"152":-0.043288206876745144,"153":-0.06742677496778512,"154":-0.002849544208610037,"155":-0.22147721860246883,"156":0.043942647444315704,"157":-0.06411444541018872,"158":0.006787511372215945,"159":-0.015478381831107791,"160":-0.041833140886293294,"161":-0.16304353126070906,"162":-0.0018421025504455565,"163":-0.24948532613569274,"164":0.06270709373463983,"165":0.1474127201121122,"166":0.026915185680223577,"167":-0.018510633998074306,"168":-0.023842057533190998,"169":-0.039440551473087185,"170":-0.1953534526150922,"171":-0.15750223711338884,"172":-0.12461397114540329,"173":0.06275858597116994,"174":0.055039933625799654,"175":0.04787857476749315,"176":-0.06707316953922006,"177":0.09843982056139584,"178":0.04785176694276741,"179":0.03115290031114898,"180":0.012749693177920325,"181":-0.07174447356994815,"182":0.3230313488303662,"183":-0.09248356833470202,"184":-0.071771479885175,"185":0.01654834195494127,"186":0.050823943340192516,"187":-0.10230422749636126,"188":0.05627345642621834,"189":-0.16236283017359507,"190":0.1414861082243269,"191":-0.16384111977009114,"192":0.00447101958364379,"193":0.026358753055582163,"194":0.0016521592834802628,"195":-0.23183887565182257,"196":0.06132136898545538,"197":-0.12827725765804085,"198":0.013110213857142937,"199":-0.041169020321777175}},{"sx":5,"sy":5,"depth":8,"w":{"0":0.01688168596010227,"1":-0.045803032136497016,"2":-0.13210245559615247,"3":0.02037278910444099,"4":-0.18616553236878008,"5":-0.03769789810712058,"6":-0.10122563869174848,"7":0.05579892310702804,"8":-0.08928144101298306,"9":0.0657986143986286,"10":0.00704372200551477,"11":0.09735003364334971,"12":0.022452591777961425,"13":0.014086335063565686,"14":0.008962847246389667,"15":0.0919086232608482,"16":-0.08734926827519479,"17":-0.042827552440006356,"18":0.0872495289461027,"19":0.10773974335305893,"20":-0.02069103653685737,"21":-0.07227955266921089,"22":0.032977934352400304,"23":0.11188991051395425,"24":-0.165788738395566,"25":-0.019128314407953855,"26":0.02834936079189725,"27":0.016475199941671417,"28":-0.09699627018393407,"29":-0.05440002301480275,"30":-0.071691322299877,"31":0.18808268581727083,"32":-0.18285774016743475,"33":-0.1205103988160937,"34":-0.1113944673949857,"35":0.06761646890536087,"36":-0.07509930784542387,"37":-0.024708616176561726,"38":0.07771084694054876,"39":0.19891082650622158,"40":-0.027453752258414784,"41":0.03290781041356347,"42":0.2120281592534318,"43":-0.11389699298718899,"44":0.07732071472210926,"45":-0.05164973466397858,"46":0.03977241014254815,"47":-0.02375378327463237,"48":0.02848831987177502,"49":0.27873345047702525,"50":-0.023535489665790516,"51":-0.040632113206992636,"52":0.2178505057410161,"53":-0.0035793751715906385,"54":0.09077430372180977,"55":-0.030452961600061446,"56":-0.008436684416873647,"57":0.2790157410372868,"58":0.05490024505368351,"59":-0.1304295284500741,"60":0.18684590515249563,"61":-0.08058302177541672,"62":-0.05355271149165554,"63":0.09908369596393629,"64":-0.05284329447298206,"65":-0.08201071174320848,"66":0.1138183695287735,"67":-0.17344319401900873,"68":0.08160845478098729,"69":-0.13944387285863047,"70":-0.050576150073316874,"71":-0.018949824221462814,"72":-0.016017353564491008,"73":-0.049048925536069175,"74":-0.006559580920407823,"75":-0.022480881167640045,"76":0.027104386785424144,"77":-0.026449154180827248,"78":0.0608673759851768,"79":0.1123497189452229,"80":0.23697586215833452,"81":-0.09343494508777772,"82":0.0981685930119661,"83":-0.1502295295669603,"84":0.013915057751161086,"85":-0.21586260729635634,"86":-0.10967338191621923,"87":-0.29249821975610957,"88":0.017052140093564705,"89":-0.042788021975992095,"90":0.12913821514140966,"91":0.024560065029787467,"92":0.14260848844853052,"93":-0.16371699901284495,"94":-0.02259166198099022,"95":-0.33238638722053415,"96":0.04409811662924029,"97":-0.006903166206986273,"98":-0.006435590258593545,"99":0.06021950716419293,"100":0.10634626216593075,"101":-0.06325473815841962,"102":-0.0323895225209178,"103":-0.16172105750595922,"104":-0.06045974140683528,"105":0.024326300022188198,"106":0.2956354711012606,"107":-0.012566335770699131,"108":-0.046066073488513284,"109":-0.19581489114855777,"110":-0.04688988520273466,"111":-0.13504406927865734,"112":-0.19698708198603296,"113":-0.3088305884767903,"114":0.0878538769298746,"115":-0.0619901939158026,"116":0.005478879499243965,"117":-0.10834364935517334,"118":-0.038496846811337214,"119":-0.20798835321894985,"120":-0.027354507180266937,"121":-0.1533516030188103,"122":-0.021203730938578566,"123":-0.06801399176272324,"124":-0.09024768549171706,"125":-0.27001956956724327,"126":0.007333065457114396,"127":-0.027615262572105576,"128":-0.0316157192352414,"129":-0.16679532600776764,"130":0.04466378659024348,"131":0.09311372614199542,"132":-0.04120965008130613,"133":-0.12307742553608023,"134":0.07720280939589086,"135":-0.051979273264545565,"136":-0.07003307691275426,"137":-0.07037160769662884,"138":-0.20828773177198653,"139":0.10668402882262418,"140":0.09449500773768099,"141":-0.2063615865335022,"142":-0.09588066312186537,"143":-0.1815559555974454,"144":-0.03152325170384699,"145":-0.08516766685751455,"146":0.026905839259506625,"147":-0.11815773377412633,"148":-0.011631770952158093,"149":-0.26955862556169113,"150":0.1547564322536195,"151":0.008515310112546783,"152":-0.15768470229457737,"153":-0.0990857764245596,"154":-0.04417148643781902,"155":0.14102920727683854,"156":0.10450258557735931,"157":-0.1665548867435441,"158":0.08591866230745865,"159":-0.11842130553711357,"160":-0.0773096568378135,"161":0.04520433135114041,"162":-0.05454180232216641,"163":-0.39796306318852237,"164":0.02138376044335969,"165":-0.057710866059891806,"166":-0.05180872743542693,"167":-0.30277919913654194,"168":-0.014776427652282485,"169":-0.020867600039855046,"170":0.022659448994009932,"171":-0.3692699686756616,"172":-0.037191243041606856,"173":-0.10532672605140697,"174":-0.054717307553778516,"175":-0.11486953243849328,"176":-0.005899445482592176,"177":-0.016998016977740303,"178":0.13502826802307977,"179":-0.27538360711260146,"180":0.09538626336060389,"181":-0.0798973154012207,"182":0.008309374286208126,"183":-0.022599530312283542,"184":0.015605349174089228,"185":0.036394924122023976,"186":0.15534580237216908,"187":-0.05362861415591348,"188":0.021837661883274143,"189":-0.08992164336962462,"190":-0.1052989035879665,"191":-0.11841256176340284,"192":-0.02433511357666135,"193":0.09147767347277524,"194":0.24011041211193193,"195":-0.2279015105849641,"196":-0.07834612057832502,"197":0.0018517492417879367,"198":-0.028741964028383797,"199":-0.09683518243776891}}],"biases":{"sx":1,"sy":1,"depth":8,"w":{"0":0.09247804057047637,"1":0.02616468678697467,"2":0.193030687140668,"3":0.1042469548796143,"4":0.17496475019844127,"5":0.11712340604555427,"6":0.07245249780973004,"7":0.1582665155829161}}},{"out_depth":8,"out_sx":40,"out_sy":40,"layer_type":"relu"},{"sx":2,"sy":2,"stride":2,"in_depth":8,"out_depth":8,"out_sx":20,"out_sy":20,"layer_type":"pool","pad":0},{"sx":5,"sy":5,"stride":1,"in_depth":8,"out_depth":8,"out_sx":20,"out_sy":20,"layer_type":"conv","l1_decay_mul":0,"l2_decay_mul":1,"pad":2,"filters":[{"sx":5,"sy":5,"depth":8,"w":{"0":-0.09587341583976408,"1":0.08648289149792107,"2":-0.08172379854507539,"3":-0.13994044183644944,"4":0.0158306843862456,"5":0.11703392868371698,"6":-0.1173469952235771,"7":0.04345160887483689,"8":0.07863369783573512,"9":0.030210197423469087,"10":0.11251077053401146,"11":0.004011842645414641,"12":-0.15804046593577098,"13":0.0299289105161652,"14":-0.022121007503816893,"15":0.09678441914003742,"16":0.04124792201835021,"17":-0.0030638646626819314,"18":-0.1309082823437796,"19":-0.004186561577019385,"20":-0.15464804162560003,"21":0.13010891250916684,"22":-0.11391703256246404,"23":-0.09086120439268533,"24":0.0007924955592154369,"25":-0.16324682524000433,"26":-0.07927085365313796,"27":0.0423595318530191,"28":-0.10035022837036757,"29":0.19965026189229595,"30":-0.04511163554788022,"31":-0.13998302914456795,"32":0.09891698100126614,"33":0.013064403269914914,"34":-0.23903896136545985,"35":0.00588859507323773,"36":-0.19739751032277794,"37":0.3142588028979145,"38":-0.07237137674812397,"39":-0.05291725336170689,"40":0.030464394242136865,"41":0.03885282585525317,"42":-0.030476629712081656,"43":-0.10604164925132407,"44":-0.10355829600389997,"45":-0.029726669322215873,"46":0.003539052643242335,"47":-0.06075241219988573,"48":-0.06279373991322545,"49":0.16666290958884528,"50":0.030188337337139503,"51":-0.005481159023799039,"52":-0.024185389056418125,"53":-0.09944468849677349,"54":0.02619899444401441,"55":-0.06350198091510231,"56":0.07435154252724697,"57":0.16733324666818034,"58":-0.18311398335586018,"59":-0.10578342193363313,"60":-0.27148388024853876,"61":-0.05603663391507278,"62":-0.009874549889766703,"63":-0.18080638866723842,"64":0.07835893280691261,"65":0.07605393819769805,"66":-0.04281318638980803,"67":-0.07862466042277164,"68":-0.0898089235002075,"69":0.05007941859559769,"70":-0.08304257446826431,"71":0.05295741122310095,"72":0.000502410677533514,"73":0.055276972064191646,"74":-0.3108168238886332,"75":-0.04815720069026611,"76":-0.037454539478475525,"77":0.09417432837901717,"78":-0.049568511073655695,"79":0.015846260810754933,"80":0.14098514693181044,"81":-0.013434177903920107,"82":-0.20355307660678487,"83":-0.03925190185573588,"84":-0.04491027553246626,"85":0.12266126769857336,"86":-0.011984648102652547,"87":-0.13985645686430564,"88":0.17843888196637608,"89":0.05180190483619896,"90":-0.11415550120112114,"91":-0.03087649677786262,"92":-0.23972011145927258,"93":-0.07686520276832991,"94":0.04807299536810343,"95":0.01266664411017862,"96":-0.10562005035049966,"97":0.12023535374325511,"98":-0.011007237787433009,"99":-0.0628524742818426,"100":-0.16128973906210417,"101":-0.05555983536423757,"102":0.01856583908786908,"103":-0.2000205485383573,"104":0.04012046194683067,"105":0.1823758402960837,"106":0.05800445192841031,"107":0.12871758084257978,"108":0.08620207782343214,"109":-0.12429943312087428,"110":-0.11210707862609323,"111":-0.08561682607863676,"112":0.0038142333763760044,"113":0.11375004568135015,"114":-0.20075523305076118,"115":0.03860880302571627,"116":-0.08851703475896983,"117":-0.11515151264154153,"118":-0.044264446685850556,"119":-0.05459033649681456,"120":0.006841551631634305,"121":-0.05688493202866064,"122":-0.38950703640133877,"123":0.07500980441673236,"124":-0.24843229576160644,"125":0.023829631371694294,"126":-0.05119181576607198,"127":-0.2957103766817512,"128":-0.09050755261848348,"129":-0.092482286110815,"130":-0.07140660125132267,"131":-0.0585721328045523,"132":-0.17334723053167145,"133":0.0883296171309983,"134":-0.0989352048292927,"135":0.009040483793645006,"136":-0.0283161205851093,"137":-0.01037329478276481,"138":-0.06366807186122642,"139":0.1368306432875484,"140":-0.26195987646225594,"141":-0.1308190310449602,"142":0.02682165433420951,"143":-0.22046848261819718,"144":-0.2021295784442196,"145":-0.14328590568039173,"146":-0.11345234050516813,"147":0.03198335919913107,"148":-0.22140854387516995,"149":-0.061217983616112776,"150":0.03967430588967992,"151":-0.17020138897727924,"152":0.0750038398554997,"153":-0.051528924676579824,"154":-0.14333486185819203,"155":0.1507959219492354,"156":-0.3688859651256304,"157":0.10725603509565561,"158":0.001869692665614727,"159":-0.16114308499676855,"160":0.17758949373350316,"161":-0.05393064353214195,"162":-0.24020341345052637,"163":0.20185975043028165,"164":-0.1765722727380161,"165":0.07238218239297467,"166":0.1510122849656355,"167":0.008590345028356233,"168":0.05395983218369415,"169":-0.08159513268477811,"170":0.011455203269492998,"171":0.12438812233324094,"172":-0.01705433909874725,"173":-0.1368138229761615,"174":0.08820858072023181,"175":0.0606252713648473,"176":0.07586278088476714,"177":-0.13680202487394366,"178":-0.17134340178434831,"179":0.08180686400140988,"180":-0.10039059996975123,"181":-0.04079075009889365,"182":0.07643517808390463,"183":0.01371753808387979,"184":0.04547104019662195,"185":0.0102268715331795,"186":-0.08844704095057242,"187":0.146621903996416,"188":-0.03113893780917568,"189":-0.05501187348046231,"190":0.11014197371831226,"191":0.1972079101111454,"192":-0.09412433633289181,"193":0.04408834738359842,"194":-0.14812301639125078,"195":0.16403393958460977,"196":-0.30235578265951574,"197":0.04903708659896878,"198":0.05972487443400335,"199":0.06897051090959093}},{"sx":5,"sy":5,"depth":8,"w":{"0":0.04986401525451246,"1":-0.12084400774640848,"2":0.10643015352486168,"3":-0.2274027216705268,"4":0.08066573766037734,"5":0.07912564235005448,"6":0.09979460719389831,"7":-0.0726680088462525,"8":-0.1471334393090444,"9":-0.053453166860964865,"10":-0.007452214821059534,"11":-0.3003726435566475,"12":-0.04415876423898628,"13":0.21405144353227523,"14":0.046649343643264125,"15":0.0052779478466867145,"16":-0.25914027978764026,"17":0.07172361325506477,"18":-0.15956249472274675,"19":-0.2615433068394418,"20":-0.09417475294371078,"21":0.19714771376927942,"22":-0.034678673534312886,"23":0.10154144869483826,"24":-0.16143478142471138,"25":0.07940628875312081,"26":0.06617970596390424,"27":-0.18462661913617626,"28":-0.022877645485515925,"29":-0.04557963405502081,"30":-0.09969861389015112,"31":0.049472605054166965,"32":-0.13217604528437593,"33":-0.07374440419248757,"34":0.03949950493093625,"35":-0.003931035598191303,"36":-0.009292796026061907,"37":-0.11528855478199736,"38":-0.08585205704527721,"39":0.16760546596310738,"40":-0.037873534320310286,"41":-0.1485165090224067,"42":0.18845543476456172,"43":-0.3197503099152798,"44":0.09855063188687894,"45":-0.25119726591938296,"46":-0.09656920535837436,"47":-0.002490611692405369,"48":-0.1564029002802007,"49":-0.09079453493442981,"50":0.019687977771417745,"51":-0.30401536859937134,"52":0.001613517923806529,"53":0.030609918565506978,"54":-0.20214710544554376,"55":0.03906581816077485,"56":-0.012210725543133714,"57":-0.07307915994502936,"58":-0.1121786324431829,"59":-0.16499981694462354,"60":-0.12897866835185148,"61":0.19759970249986333,"62":-0.18273932417323804,"63":-0.02332096301398325,"64":-0.16326686524504883,"65":0.06493593187735962,"66":-0.05671170486690153,"67":-0.02810751022315926,"68":-0.1752561500770736,"69":0.036613247751182035,"70":-0.10159475826500398,"71":-0.041282269068300424,"72":-0.10209827898766281,"73":-0.07864851027591946,"74":0.16182348525426735,"75":-0.058935870362957644,"76":-0.010164894605467321,"77":-0.012034929330456615,"78":-0.10874612503140933,"79":0.11443025971688225,"80":-0.18330619560108855,"81":-0.0766428952912197,"82":0.04530139664303732,"83":-0.06703566502516868,"84":0.1321348605620864,"85":-0.1745383592200859,"86":0.003339188227852246,"87":-0.0012463338931112755,"88":0.1963103205473142,"89":-0.05476963813751767,"90":0.004678882939229289,"91":-0.11459080364101921,"92":-0.05072259999298258,"93":0.013032365636452242,"94":-0.04897252330673056,"95":-0.07428456244341182,"96":0.11450166496399013,"97":-0.017547268424814046,"98":-0.10209241978507867,"99":0.030894066868922893,"100":-0.16105789885418634,"101":0.10876653025972102,"102":-0.1020469096851123,"103":-0.06734870716051403,"104":0.20983742402719502,"105":-0.08992855559504902,"106":-0.06278193565403976,"107":0.08068218968284062,"108":-0.05597709768162617,"109":0.25734343516418456,"110":-0.010280956216275809,"111":-0.07167626600085619,"112":0.028302602680268546,"113":-0.19343955702197785,"114":0.03459325279544488,"115":0.1095549570066703,"116":-0.12578402823863533,"117":0.1782020834833237,"118":0.011304021867872235,"119":0.07920184725154335,"120":-0.1988519983370062,"121":0.06064772504445889,"122":-0.0551408351082304,"123":-0.05805729515893808,"124":-0.19993710280336524,"125":0.07906584681665564,"126":0.11290429489791579,"127":-0.04751242277019471,"128":-0.015355189396348926,"129":0.08155078503229941,"130":-0.18969517812501793,"131":0.13217288342883243,"132":-0.1958633086449166,"133":-0.017920101122843726,"134":-0.018111843642592735,"135":-0.16109829291495661,"136":0.11227474251954811,"137":0.20660354107522222,"138":-0.038996844623393916,"139":0.15844240590477826,"140":-0.11819741989357234,"141":-0.07516643386907342,"142":0.04682275129540385,"143":-0.1219238889857268,"144":0.008727164535775812,"145":0.3767279119076143,"146":-0.009950222948794258,"147":0.13726874225155913,"148":-0.000758830199422362,"149":0.17605433423882022,"150":0.0972013263662325,"151":-0.11743433995998231,"152":0.06744902733634713,"153":0.1812645710055326,"154":-0.03527717789750073,"155":0.03436846349510846,"156":-0.18541999034511017,"157":0.19037211301071438,"158":0.11019756849697453,"159":-0.18021655366928968,"160":-0.06457374622017199,"161":0.09505557070513879,"162":-0.22523789768107652,"163":0.07381588551917087,"164":-0.2022685127215101,"165":0.09403574422658517,"166":0.02631078925629804,"167":0.011078240744509369,"168":0.13059566773431766,"169":0.04293083509000887,"170":-0.026066558518332922,"171":0.07704467074885772,"172":-0.10751000053717977,"173":-0.024259054118295202,"174":0.08341744091864366,"175":0.028803518751338034,"176":0.005028992057343843,"177":0.06614280399649122,"178":-0.13234728857427475,"179":0.12461340983634758,"180":-0.04535466582608969,"181":-0.0530143780866556,"182":0.19475557513349295,"183":0.021731840912485322,"184":0.17872062514460915,"185":0.0915223201870808,"186":-0.10945735077728895,"187":0.16834477922476757,"188":0.031227772774554532,"189":0.08268658517926221,"190":0.02342001286671159,"191":-0.03530980120716157,"192":0.08446291588012966,"193":-0.04528629898105861,"194":0.05963393481918302,"195":0.13252155593276033,"196":-0.0001810177878081902,"197":0.2193283745347423,"198":0.13653288881337072,"199":-0.1008826670458409}},{"sx":5,"sy":5,"depth":8,"w":{"0":-0.05643944586674184,"1":-0.04620446471853097,"2":0.03767519640530251,"3":-0.0751216450058125,"4":-0.13065611353654033,"5":0.14309695221149543,"6":0.03739063452515229,"7":-0.06064475356008261,"8":-0.011402280562870215,"9":-0.09344755331452183,"10":-0.10098941725025125,"11":-0.023750705228231337,"12":0.00621503469481082,"13":0.1906155191128979,"14":0.015295702092492989,"15":0.01022412598756819,"16":-0.10427281304374195,"17":-0.011349087449518678,"18":-0.12162683479252753,"19":0.08581376352636073,"20":-0.040018961217228755,"21":0.03266591474181884,"22":0.004345386668275609,"23":-0.08870457745374659,"24":0.08811905421676378,"25":0.05440529522460511,"26":-0.07001601123737484,"27":0.10862073694104905,"28":-0.15526792101315437,"29":0.013306056105268157,"30":-0.02890498594697034,"31":0.0209065130396588,"32":-0.05521946449095696,"33":0.16671459373852016,"34":-0.026408896156318785,"35":-0.09258262867023251,"36":-0.18751467339546452,"37":0.10713282905676688,"38":-0.0718720723427825,"39":-0.10282792021548182,"40":-0.02524319040987455,"41":-0.09223622683818786,"42":-0.10811251386763843,"43":0.03587690132653428,"44":-0.12174991526627897,"45":-0.013995289639784378,"46":-0.032123657013726915,"47":-0.040184631812813974,"48":-0.0797765547162893,"49":-0.0060891438709797996,"50":-0.1732064456031758,"51":-0.019715266489973734,"52":-0.15151182114890516,"53":-0.007546806713110575,"54":-0.015428631117243541,"55":-0.1897768110734184,"56":-0.04657431536965092,"57":0.09814046246091492,"58":-0.1782954849157869,"59":-0.009100213062371276,"60":-0.15583445529734485,"61":-0.09756350806573849,"62":0.10290286319389562,"63":0.004338385367586684,"64":-0.10800121972211542,"65":0.00440523709956894,"66":-0.09001404653878997,"67":0.002714219059548989,"68":-0.14658656168106016,"69":-0.04894170148711292,"70":-0.09396182394407221,"71":-0.152415011810779,"72":-0.007688041938544025,"73":0.12897171647182273,"74":-0.16242097607440104,"75":-0.000006645480666809188,"76":-0.24355067105270375,"77":0.03437886531304999,"78":-0.10815825063894094,"79":-0.0766759132352539,"80":0.05567041720705065,"81":-0.10238364300414829,"82":-0.10672082913900602,"83":0.06612022531350956,"84":-0.09032974702064737,"85":-0.10642701791085026,"86":-0.03786315641993466,"87":-0.07526502432662363,"88":0.05750132267442152,"89":0.05025941121992065,"90":-0.2880188345706634,"91":-0.07140279193268914,"92":-0.0948988628145547,"93":0.004071406315959638,"94":0.06589143630704287,"95":-0.06612624405519427,"96":-0.03325169004630444,"97":-0.011563616921146234,"98":-0.07711582589229712,"99":0.09530252442004367,"100":-0.14380123365549038,"101":-0.04295891743724852,"102":0.07533470939025985,"103":-0.07055885678437332,"104":-0.02664032384643747,"105":0.04018678801069354,"106":-0.17552516197465232,"107":-0.13686687419159996,"108":-0.03461873549140987,"109":-0.08981126696855662,"110":-0.059044889251515055,"111":-0.06153605930218995,"112":0.001747062928701897,"113":-0.07175483409180539,"114":-0.03683989102113876,"115":-0.11479388819029607,"116":-0.07902010473302651,"117":0.07993671823023339,"118":-0.006797230444821929,"119":-0.05750662910815933,"120":0.03784440089118861,"121":-0.05076091650715822,"122":-0.18090783312163833,"123":-0.03058574144903774,"124":-0.19386935232748614,"125":-0.095273746688151,"126":-0.019600509582992916,"127":-0.10023184412956342,"128":-0.01458329002927194,"129":-0.024560737451237248,"130":-0.2535371807615143,"131":0.05548580057111866,"132":-0.10445348853184987,"133":-0.060898505685092134,"134":-0.07887110456208235,"135":-0.10321804423209073,"136":-0.06732490400219997,"137":-0.09227606978649074,"138":-0.1405520869494763,"139":-0.08059077906816915,"140":-0.1450919422160683,"141":-0.031172664470309433,"142":0.013120180357312756,"143":-0.08703600747182584,"144":-0.04505694300072906,"145":-0.02232828804916905,"146":-0.1263940263660417,"147":0.03728741458812306,"148":-0.047933086149254754,"149":-0.0697174953961461,"150":-0.17331203463993294,"151":-0.04103119078638112,"152":-0.069593812394291,"153":0.04211441678509538,"154":-0.1180395956829543,"155":-0.06523924259593214,"156":-0.07423009129218335,"157":0.029296100795077613,"158":-0.1215644617330016,"159":-0.0667971669662051,"160":0.09323272266109535,"161":-0.054773965776371225,"162":-0.27246581814997956,"163":0.09878058125648653,"164":-0.23954205799669873,"165":-0.027055779377765536,"166":0.05635844368282016,"167":-0.1473422693471427,"168":0.12350559288054194,"169":-0.07486177153684775,"170":-0.11978251194595857,"171":0.0607247451006095,"172":-0.06962549438519917,"173":0.03222382747695225,"174":0.09208298786232086,"175":-0.21313043945278654,"176":0.035560090997782054,"177":-0.08890928001989216,"178":-0.16442860272439186,"179":-0.004935461374761741,"180":-0.051653231297858475,"181":-0.09793293043842122,"182":0.11010018524615998,"183":-0.005868353613926761,"184":-0.1533521275908225,"185":-0.005814046820927153,"186":-0.11568685488622303,"187":0.11905612808272276,"188":-0.0686896999520319,"189":0.019218302938201506,"190":-0.043592458948373325,"191":-0.024529052336026945,"192":0.0018559744422289458,"193":0.09946403290544939,"194":-0.20312831550646115,"195":0.1334111680653629,"196":-0.3540910632208916,"197":0.058245896694334935,"198":-0.028242597965123926,"199":-0.12813893091909517}},{"sx":5,"sy":5,"depth":8,"w":{"0":0.00577497997689478,"1":0.11449436775652015,"2":0.18852482790072395,"3":0.07742442550029457,"4":0.12692975879122145,"5":-0.3070487505460794,"6":0.03631623876678222,"7":0.023897217183773623,"8":0.08599717624532567,"9":0.010049628932167636,"10":-0.05154003843292203,"11":-0.06645451006889348,"12":0.0011167753187167784,"13":-0.09146283523365105,"14":0.0194140909106713,"15":0.11640890100165371,"16":0.005491938166490969,"17":-0.019863981060004286,"18":0.1450980342750628,"19":0.14431420369542333,"20":-0.025450434857021698,"21":0.019929248916677852,"22":0.030299118772014456,"23":-0.07778417921169063,"24":0.02816605056241237,"25":-0.06632102367701719,"26":0.041435113178991095,"27":0.06304465672342517,"28":-0.06114762159953417,"29":-0.12202505169349329,"30":0.10790256565020599,"31":0.01563157697142554,"32":0.05412045186495396,"33":-0.08565753910039027,"34":-0.11127132464911622,"35":-0.007412145257143193,"36":-0.05870122566038058,"37":-0.08767521331414327,"38":-0.053815572875739875,"39":-0.09690052254475696,"40":-0.1271537031692204,"41":0.02507533284718716,"42":0.02290223964708699,"43":-0.02015776320356487,"44":0.10507792551084111,"45":-0.03781000044038559,"46":0.022439146308831506,"47":-0.04188370048347223,"48":-0.09928070399997338,"49":-0.05036113815791782,"50":0.022343083588462966,"51":0.12371122891690668,"52":0.022698661501820136,"53":-0.07922420619311464,"54":0.03573679317925649,"55":0.06842550074997898,"56":-0.021559841131493396,"57":0.07990767295080461,"58":-0.025032229575059083,"59":0.20848445387340636,"60":-0.07948032395048443,"61":-0.05536777896881921,"62":0.05595291272413065,"63":0.12861036766999287,"64":0.09393631191539951,"65":-0.11146978809614735,"66":-0.13427752358005524,"67":0.12893622332165003,"68":0.10047253194780251,"69":-0.1503707999560319,"70":0.19427437572287448,"71":-0.15337809194818683,"72":-0.02336964952817767,"73":-0.04109845824194662,"74":-0.02729702446500137,"75":-0.001677869733108454,"76":-0.018494404599139414,"77":-0.11611649064698548,"78":0.16780775075589333,"79":-0.06597564151765219,"80":-0.12380800190142052,"81":0.10669687512320326,"82":0.15630548928021398,"83":0.03865115005536436,"84":0.11814332561524188,"85":0.09973902792766912,"86":0.022022863596559132,"87":0.07682326304626877,"88":-0.20505410776218502,"89":0.02105148603773035,"90":0.07692822061653068,"91":0.0027627739089754536,"92":0.2189825796278714,"93":0.033877009955670764,"94":0.05360335632676871,"95":0.1975662942851572,"96":-0.08883523390205547,"97":0.0050499195443356746,"98":0.1835333421881066,"99":0.010718643033491498,"100":0.17750940438699644,"101":0.05850345773446204,"102":0.16577543547874238,"103":0.2420201378853075,"104":0.1412299943327673,"105":-0.06158161173342877,"106":0.07377356808772252,"107":-0.026421493867995666,"108":0.14125922252679254,"109":0.02630750121312205,"110":0.10524002487513862,"111":0.18370538927456895,"112":-0.048871618672092984,"113":-0.13063626079358556,"114":-0.09197761122369315,"115":-0.14071040871655147,"116":0.16312994213566773,"117":-0.11970194937247985,"118":-0.08492021356762933,"119":0.17744893566317044,"120":-0.17406878894623518,"121":-0.07186727252404876,"122":0.03861228532845628,"123":-0.1899747579727378,"124":-0.11711213817100032,"125":0.133134183868743,"126":-0.18606212641473968,"127":-0.18192719914915917,"128":-0.29434936828907865,"129":-0.07056890503927409,"130":0.19371362343666343,"131":-0.27406871241133585,"132":-0.12152808733692078,"133":0.0667589117037512,"134":-0.2931433413364881,"135":-0.08665395681867717,"136":-0.34760140123507055,"137":-0.01419279672840234,"138":0.17002945842505088,"139":-0.2045637064681529,"140":0.10094674982452859,"141":0.20869267900789387,"142":-0.2613948992877075,"143":-0.09943869621368709,"144":-0.20378106242557156,"145":-0.003790815007414358,"146":0.14090653114502905,"147":-0.24089862464789386,"148":0.12007181299699657,"149":0.11953458853803967,"150":-0.18203888242854338,"151":-0.0743288136128894,"152":-0.36730787042520496,"153":-0.1943307061309849,"154":-0.006235205068285349,"155":-0.20967313075267768,"156":-0.020152435762193378,"157":0.22619913794367702,"158":-0.12838246491044045,"159":0.19732776547451186,"160":-0.07040645121334232,"161":0.006765682039946986,"162":0.03446246787619246,"163":-0.22919506914192733,"164":-0.12722739136385205,"165":0.09241798903835782,"166":-0.23553470463007997,"167":-0.15291229731862238,"168":-0.08733164559705028,"169":-0.009103013912818118,"170":0.09075979745919165,"171":-0.259340403372666,"172":-0.1146505287232518,"173":0.1986487507812963,"174":-0.24858613134427013,"175":-0.04399451595080148,"176":-0.07858220764357293,"177":-0.2895304328832684,"178":-0.03699634676420799,"179":-0.3995927178378924,"180":-0.026555783163090717,"181":0.049095457889443535,"182":-0.21219853711714112,"183":-0.03855249089268468,"184":-0.2521586043031228,"185":-0.08579005884239695,"186":0.0599767280805785,"187":-0.291188312578835,"188":-0.1998201303063907,"189":0.16551654449778633,"190":-0.18446247768926008,"191":-0.019349045983592963,"192":-0.22520210498285165,"193":-0.17734636016509106,"194":-0.021833843952932877,"195":-0.4163766037659368,"196":-0.06676573209580193,"197":0.29973026259475494,"198":-0.36782144232981423,"199":0.1238363590687695}},{"sx":5,"sy":5,"depth":8,"w":{"0":-0.07857516079699563,"1":0.0614934390384149,"2":0.0389023180584536,"3":-0.057922839906356376,"4":0.0772475518337421,"5":-0.003888681169009871,"6":0.11227903132391145,"7":0.020343888276242048,"8":-0.017505495553311056,"9":-0.04621304402667031,"10":-0.02581088375181846,"11":-0.19039850556426346,"12":-0.08204991676682247,"13":0.0882811800118399,"14":0.18771297137509063,"15":-0.05839522186364535,"16":-0.07678139101386017,"17":0.047771276408459615,"18":-0.12257285678104415,"19":-0.2862937953190403,"20":0.05629116221614267,"21":0.1708751756498307,"22":0.0810851152023992,"23":-0.1364923355040954,"24":-0.06178456246945361,"25":-0.023531962342059485,"26":0.23671263998400943,"27":-0.09967562763053292,"28":0.23652469477292073,"29":0.06024515707086508,"30":0.03624865387793482,"31":-0.030709551071324507,"32":-0.05086404358869929,"33":0.003940961758917635,"34":0.12857896289733653,"35":-0.13240500316372264,"36":0.08954436970670725,"37":0.018718351232164424,"38":-0.0012089649719846218,"39":0.011441302880699004,"40":0.031315565548585465,"41":-0.02936086745772436,"42":-0.04238533415000144,"43":0.004710701110093937,"44":-0.15566963496634326,"45":-0.013118634982383807,"46":0.0704933644790319,"47":-0.05847960335197809,"48":0.059625849496818775,"49":-0.06650520108572365,"50":-0.04262573794935698,"51":0.15600468980856452,"52":-0.24602066704979975,"53":0.2852203838859014,"54":-0.02690311421590172,"55":-0.014554123314320135,"56":-0.08772263420101163,"57":0.09748108322814206,"58":-0.07891278748343748,"59":-0.049630519127339505,"60":-0.14488620713323216,"61":0.11182985720773089,"62":-0.00997358539415136,"63":-0.07746232667284961,"64":-0.10140252844954674,"65":-0.18915309637552827,"66":-0.0009472939289064245,"67":0.02916945747374758,"68":-0.09955863372269837,"69":0.22026265906177397,"70":0.09044995917365241,"71":-0.22554057069963954,"72":0.0995240262495506,"73":-0.03472598553376214,"74":0.01148798137257845,"75":0.09743496135005725,"76":-0.004393600849132354,"77":0.0469663039043629,"78":0.005710800095180339,"79":0.08577564979972888,"80":-0.05160900861299338,"81":0.08436932663001036,"82":-0.06823088163212752,"83":-0.19597101262451982,"84":0.057549135485220206,"85":-0.03962079142627369,"86":-0.07274943639703772,"87":0.02451961795854773,"88":0.04512395876741678,"89":0.03019886753192585,"90":-0.11226289016006887,"91":-0.027489865688962906,"92":-0.05166049242480607,"93":0.07059065956585589,"94":0.0842513223126754,"95":-0.05896663751693184,"96":0.14268233121091103,"97":-0.037646333310693225,"98":-0.10278421081687919,"99":0.02786951617630284,"100":-0.054986742991071556,"101":0.06944227735646744,"102":0.15041913874470733,"103":0.025599143244832645,"104":-0.004663636464521741,"105":0.06585035910593524,"106":-0.1159581686333127,"107":0.07752183778626204,"108":-0.22780834088302065,"109":0.03208717012379145,"110":0.05581622413750896,"111":-0.15032845525247146,"112":-0.015269246849323369,"113":0.0323054530712214,"114":-0.13739407961260902,"115":-0.020010759719064557,"116":-0.16674967114553088,"117":0.03029483294495461,"118":0.008133959191666209,"119":-0.025188278240301693,"120":0.04465667916426039,"121":-0.083178478930632,"122":-0.07480085281569879,"123":0.07000389566907868,"124":-0.15843035268847086,"125":0.10561115937528785,"126":0.038188690942314765,"127":-0.17105779198846507,"128":0.09127108042531923,"129":-0.10162083995383431,"130":-0.05528939258534976,"131":-0.049224527844700015,"132":-0.0012270967695872665,"133":-0.12074407459782675,"134":0.09144492083659134,"135":-0.0757450354610055,"136":0.014376697783716632,"137":0.06106777984872113,"138":0.07030467113557388,"139":0.12162384990071463,"140":-0.14299189948745283,"141":-0.02725633069511648,"142":0.1383581484409573,"143":-0.06548061586931528,"144":0.1780134814620973,"145":-0.009415450907959233,"146":-0.14861227248724088,"147":0.17471785117078634,"148":-0.17458277587149026,"149":-0.06636806982899876,"150":-0.06805464115787374,"151":-0.025941542057593612,"152":0.13898886384998962,"153":-0.07870876658510996,"154":-0.09873148589244043,"155":-0.015519601432146118,"156":-0.22591305719034382,"157":0.05981022566805759,"158":-0.07540094827934937,"159":-0.049405948580175774,"160":-0.03731155638133791,"161":-0.08325976376128538,"162":-0.10134763948499763,"163":0.0754411210690973,"164":-0.17070980041734968,"165":0.0490862618525913,"166":0.022076151722800478,"167":0.07501929891327956,"168":0.10316677200884641,"169":0.04184248345027911,"170":-0.08278283406716602,"171":0.05123265767829208,"172":-0.21991380330094476,"173":0.014499684453604193,"174":0.13771482046960612,"175":0.07688918976334219,"176":0.04882399654762663,"177":-0.06670998953596152,"178":-0.19152520917137217,"179":0.08312322554200646,"180":-0.10830312547666256,"181":-0.09184068672920424,"182":0.06266717572042127,"183":-0.08236461514676066,"184":-0.054322318755946467,"185":-0.0003532230024359979,"186":-0.08734567825284374,"187":0.07638084590176113,"188":-0.19851656397441445,"189":0.05052038220963311,"190":-0.0693411970537442,"191":-0.000787504018398889,"192":0.07743224453681598,"193":0.09571385435552707,"194":-0.0999093808007738,"195":-0.07691569877122724,"196":-0.263901867403762,"197":0.1981365896422266,"198":0.02576537633304382,"199":-0.14052311467822085}},{"sx":5,"sy":5,"depth":8,"w":{"0":0.08825491766983869,"1":0.13897084979012395,"2":-0.04377106590588294,"3":0.25296886148050024,"4":-0.2069083359190084,"5":-0.3010056092093917,"6":-0.07020389933392178,"7":0.028425706276072434,"8":0.12686833338035972,"9":0.14044002692169796,"10":-0.09138007601512577,"11":0.11217558491343853,"12":-0.06555986100265598,"13":-0.153740787987146,"14":0.06424079370928892,"15":-0.04734836726978016,"16":0.10106032633386819,"17":0.13433813552210805,"18":0.17808002045458024,"19":0.022659853415655212,"20":-0.012825626404321621,"21":0.2053736481968316,"22":0.022357379757922815,"23":-0.11996565021237049,"24":-0.29886614958366386,"25":-0.012706386543000424,"26":0.06764335954154445,"27":-0.3350946221262512,"28":0.14701255556388831,"29":0.3341437607883738,"30":-0.04520430537116332,"31":-0.002210112942247834,"32":-0.3225284951807484,"33":0.011202288988158596,"34":0.12448948697494407,"35":-0.3620818008889968,"36":0.2944308113986942,"37":-0.1155914912335544,"38":-0.013177842971883243,"39":0.17369825081968446,"40":0.04735837420443153,"41":-0.04662428579406973,"42":-0.049305982186574504,"43":0.11511794158164017,"44":0.1532240854613805,"45":-0.14465626449205723,"46":0.18241447014308712,"47":0.15542130838409723,"48":0.05730639808542235,"49":-0.07601644677485443,"50":0.02509411821120213,"51":-0.03338063070351794,"52":0.05369764117745793,"53":-0.10820688707264427,"54":0.25054559779173535,"55":-0.040245104091023054,"56":-0.11532939435092208,"57":-0.03459091827869043,"58":0.12632883225592006,"59":-0.1592914696597386,"60":0.06067477192205928,"61":0.18936020516055635,"62":0.09520584580904098,"63":-0.15299107350025953,"64":-0.20669893419967691,"65":-0.00655373832702304,"66":-0.0663791870799395,"67":-0.39520610863375455,"68":-0.13237466510086815,"69":0.35703964571542285,"70":-0.058547853405424975,"71":-0.17931360058451717,"72":-0.49083846667487147,"73":0.03133462213528159,"74":-0.10614806326871895,"75":-0.2571080240251682,"76":-0.27356733362923336,"77":0.11265083846066981,"78":-0.181180162685674,"79":-0.18766283355743424,"80":0.019157229843095678,"81":-0.07866610592132849,"82":0.08721858698681942,"83":0.00945844394496257,"84":0.06337664091236181,"85":-0.11533915921050666,"86":0.0830340308130389,"87":0.12757961387832978,"88":-0.04394226513470231,"89":-0.10315575696887876,"90":0.05839761594626338,"91":-0.19254511504015145,"92":0.1527002129262826,"93":-0.25849414840937973,"94":0.05335315244346775,"95":0.07753144162266834,"96":0.012273175627383014,"97":-0.04146905831775676,"98":0.03737227293484418,"99":-0.1327219424133458,"100":0.044060844869110834,"101":0.07874896537411748,"102":0.007086537392805586,"103":0.03563639921096868,"104":-0.007219010480785038,"105":-0.14696486899717184,"106":-0.17898552351424205,"107":-0.3252558814368087,"108":-0.04836168938902058,"109":0.17188636190412884,"110":-0.1217726490958271,"111":-0.021438082936759136,"112":-0.07423009605290802,"113":-0.13058302385359058,"114":-0.3599281164048996,"115":0.002072102249042435,"116":-0.39824208711288883,"117":0.05600323490472171,"118":-0.12220156222832072,"119":-0.07287335196935145,"120":-0.06308055809610047,"121":-0.05619644798552701,"122":0.10317603008568771,"123":-0.035678495614609264,"124":0.18343573090423884,"125":-0.13727016787078572,"126":-0.000659006233765967,"127":0.032316548469482384,"128":-0.15349272630295027,"129":0.022508464405581945,"130":0.13680396181870333,"131":-0.12641076576096033,"132":0.11254058882627922,"133":-0.024332524946357462,"134":-0.029674642749680402,"135":0.041072930920561905,"136":0.13757187328961218,"137":0.14854207059144675,"138":-0.0013899837599067586,"139":-0.010733769527154343,"140":-0.062498169173141487,"141":-0.0907241201125273,"142":-0.3073313710074569,"143":-0.14907991502290768,"144":0.15304860285371044,"145":0.13802623705864928,"146":-0.013762492065378414,"147":-0.2181683615361814,"148":-0.06358274807328806,"149":0.054376089216445066,"150":0.04137667608565285,"151":0.001560663601868845,"152":0.07687434692754277,"153":0.04562655469671727,"154":-0.10913177774678144,"155":0.019494338725149697,"156":-0.19019611158684924,"157":-0.06695295438265371,"158":-0.05407164306144013,"159":-0.06909569945759325,"160":-0.09812344020845024,"161":-0.12192899085064443,"162":0.0677453375404062,"163":-0.1297354529519499,"164":0.0825424367403785,"165":-0.14038077241851002,"166":-0.017094672638170265,"167":0.048072463356658136,"168":-0.001023556539473739,"169":0.1289555041916828,"170":0.15371378644001543,"171":0.023769708223687867,"172":0.06348444977314024,"173":-0.08734270233212571,"174":-0.09519678127871146,"175":0.13867558286175372,"176":0.05571357309755497,"177":0.06712162804170575,"178":0.06301351735457392,"179":0.03572840674819745,"180":-0.004711038973185591,"181":-0.10413959469456231,"182":-0.06997008874807824,"183":-0.009124731293367735,"184":0.08590989573668345,"185":0.1438116214273149,"186":0.006050082097466679,"187":0.10331710717772835,"188":-0.15852495050933293,"189":-0.16865422469094551,"190":0.1430983324036743,"191":0.03543796375077523,"192":0.06408107909235515,"193":0.048310796072751704,"194":0.08773685822117148,"195":-0.012644827894638912,"196":0.020775373152493313,"197":-0.13876333614190503,"198":0.26018819159467166,"199":-0.16402859642965978}},{"sx":5,"sy":5,"depth":8,"w":{"0":-0.01330477822344275,"1":-0.0362213167057271,"2":0.08181059772398475,"3":0.24572253296878294,"4":0.042986548380857595,"5":0.13577232686505034,"6":0.10747274781974919,"7":0.2578362267857441,"8":-0.08594533321100979,"9":0.013879648959836502,"10":0.0789140567127981,"11":0.09987434389578119,"12":0.06786619035543955,"13":0.06790641369839258,"14":0.05639228495574399,"15":0.22589143827356914,"16":0.22307857971576717,"17":-0.05777678750194317,"18":0.022797290559669763,"19":-0.07672082232776845,"20":-0.0829019839777877,"21":-0.04558151179215829,"22":-0.007845104575036153,"23":0.0320358511993926,"24":0.09044873938701074,"25":0.022479153053070296,"26":-0.0888074494616645,"27":0.18533752766979156,"28":-0.06249566267875492,"29":-0.06202007312816952,"30":-0.08694649121771515,"31":0.02744008556961803,"32":0.1619821366687459,"33":0.032471123027015616,"34":0.09880900673213291,"35":0.07647867980136125,"36":0.318814148965421,"37":-0.040544533764089945,"38":0.034993946156290194,"39":0.09921639946895516,"40":-0.035221230595857446,"41":0.003472858025495898,"42":0.09686480817122185,"43":-0.11264594003539011,"44":-0.120177969351575,"45":0.09454218961074269,"46":0.001037618718673413,"47":0.0009325911868918149,"48":0.009235513482306364,"49":0.14841522177789276,"50":-0.01940357193167064,"51":-0.062258912739213974,"52":-0.10364787107174979,"53":-0.0916530567278425,"54":0.03892284641264373,"55":-0.014765329032636314,"56":0.11919469897521204,"57":0.11615327527139685,"58":-0.1182623899681735,"59":-0.009350316110270625,"60":0.06095812798360928,"61":0.011133769899467615,"62":-0.17470409411064486,"63":-0.027875148139042225,"64":0.02002840854291204,"65":0.08912051136069982,"66":-0.14565580268441716,"67":0.18801602761712832,"68":-0.044154415163183476,"69":0.042371690889724034,"70":-0.012423481284601686,"71":-0.11300542210571722,"72":0.13087690954891593,"73":-0.059116279252791656,"74":0.03430562290768447,"75":0.0461796327653313,"76":0.12835554097485138,"77":0.09798716249298631,"78":0.12483427031570885,"79":-0.0459310039637766,"80":-0.2631048296942775,"81":0.053056167025955704,"82":-0.11820144508473307,"83":-0.08825306513384021,"84":-0.20142845189890754,"85":0.15992019306651928,"86":-0.038326931602911195,"87":-0.14046944985182552,"88":-0.17936310412818868,"89":0.09364438605036549,"90":-0.1067393927410105,"91":0.009948196146096515,"92":-0.2925213632488086,"93":0.031020890511790543,"94":0.04203830700778525,"95":-0.13503853183132908,"96":0.02392347202107544,"97":0.08104413426719466,"98":-0.11947061101427443,"99":-0.03619678888174301,"100":-0.29727065041885975,"101":-0.07124938733122187,"102":-0.0933216161361245,"103":-0.19690468062917976,"104":0.006176844307592544,"105":0.03383059006053893,"106":-0.16033838227109248,"107":-0.21363963725204038,"108":-0.11157403116126599,"109":-0.06887376133489186,"110":0.0302440209948577,"111":-0.32373374455685794,"112":-0.03170688589473323,"113":0.0046339019689461605,"114":-0.07544918946074942,"115":-0.007600184967881114,"116":0.05338792940066453,"117":0.16816294132667708,"118":0.0305664024046279,"119":-0.19429453122287182,"120":-0.05517398846758972,"121":0.018808256592633035,"122":-0.16615727472878347,"123":-0.0590038674814688,"124":-0.5241058500942447,"125":0.027084625602655864,"126":-0.09649403240785222,"127":-0.2679609111965253,"128":0.0692074873901131,"129":0.07386760703820218,"130":-0.26177953507649826,"131":0.07451815876783502,"132":-0.37370542970644083,"133":0.019718310252068796,"134":-0.06760741934331808,"135":-0.3484344039887116,"136":0.08747831714549309,"137":0.05453421874813207,"138":-0.30736105480832177,"139":0.04424514431775565,"140":-0.23005249071134148,"141":-0.05837701456538588,"142":0.04539160395849104,"143":-0.2492675608934903,"144":0.03476749760825602,"145":-0.006841038849865963,"146":-0.13575425562280305,"147":0.11729592358446488,"148":-0.11545619999442579,"149":0.09365562195196815,"150":0.2326392381618663,"151":-0.24932897235887155,"152":0.01880791624857131,"153":0.03975587146828126,"154":-0.047752247199576416,"155":-0.053423136472376044,"156":-0.10635218234537198,"157":-0.0685842128700879,"158":0.19722103129913446,"159":-0.056378834243512005,"160":0.1704824633157935,"161":-0.10462452180627362,"162":-0.162620407993281,"163":0.25539418954345117,"164":-0.3610918403442393,"165":0.009237205600632861,"166":0.02561903320904188,"167":-0.0425970905168103,"168":0.05383930169368014,"169":-0.15033201758349143,"170":-0.388959372376197,"171":0.2901521468872522,"172":-0.3526914177971199,"173":0.02184167221929948,"174":0.04216164960090778,"175":-0.0420630243394298,"176":-0.0002764527570354744,"177":-0.16462261068808012,"178":-0.13982222077461653,"179":0.24584696684906027,"180":-0.19316635932527157,"181":-0.004022579901477211,"182":-0.12448834850524135,"183":0.02320151737745876,"184":0.1171330471887696,"185":-0.0266908658863842,"186":-0.24357028915082446,"187":0.0856076270938405,"188":-0.008487678528092875,"189":-0.03795854934175235,"190":-0.013003636590157365,"191":0.10148253621610448,"192":0.20777224264866206,"193":-0.06321419621249627,"194":-0.20074134442335326,"195":0.19262765986571714,"196":0.08055779348205203,"197":-0.03464625312947804,"198":-0.041184962291923075,"199":0.16775273380577793}},{"sx":5,"sy":5,"depth":8,"w":{"0":-0.10410994698135388,"1":0.14584566940977284,"2":-0.007253417076327414,"3":0.06818675508592811,"4":-0.05443653564951786,"5":0.05167837737063946,"6":-0.09430920195453801,"7":0.07113896249868563,"8":0.09328589098600841,"9":0.1572159121048895,"10":-0.0815456097972545,"11":-0.04680694066540693,"12":-0.07476464554336042,"13":0.22666137175148127,"14":0.07882544913987066,"15":-0.09022751689267058,"16":0.03099539015021693,"17":0.18050950415846495,"18":-0.17387260631984755,"19":-0.11689775725671579,"20":-0.056969114391929324,"21":0.1701987202044922,"22":-0.0758457536552242,"23":0.000039558604323275723,"24":-0.07609989662905248,"25":0.3091638560878413,"26":-0.13497816367709034,"27":-0.28876812752404907,"28":-0.09264254677716817,"29":0.17108781783351837,"30":-0.004892610520917376,"31":-0.027713372472250176,"32":-0.0557199482599233,"33":0.20627221587846017,"34":-0.016124407249533082,"35":-0.07166357336656305,"36":0.0715017054538989,"37":-0.05012106159533367,"38":-0.06784653325476217,"39":0.0927431962999734,"40":-0.10691888625589455,"41":0.09432428554074826,"42":-0.029870146835643038,"43":-0.04407467011003767,"44":-0.09488544577099943,"45":0.18419775588298504,"46":0.017345235284268883,"47":-0.10617297273062604,"48":-0.004045762385062998,"49":0.030692521956033458,"50":-0.0032564536048225127,"51":-0.04315471735036194,"52":-0.2340976271830433,"53":0.05490738011117532,"54":-0.031142800391991146,"55":0.03847503906061465,"56":0.17371873992437717,"57":0.21370372428212248,"58":-0.07160771534045063,"59":0.12508117493070708,"60":-0.020403022759164557,"61":0.04145187457340936,"62":-0.02025196468804988,"63":-0.024151133937762064,"64":-0.03664848798771473,"65":0.20675439834341097,"66":0.03131148415699595,"67":0.010247171209381865,"68":-0.0032786297364308242,"69":0.012910928269031305,"70":-0.01861898850299305,"71":0.018819872259097713,"72":0.05772831985243594,"73":0.10274978475886189,"74":0.11749774419689142,"75":0.043748747865383415,"76":-0.04492709542709016,"77":-0.1532897161518827,"78":-0.12946111063477772,"79":0.11076938423851486,"80":-0.03499776178927638,"81":0.018470106791106562,"82":-0.002803714473204019,"83":0.094846694791454,"84":-0.12874940148549036,"85":-0.1615435137954367,"86":-0.014828319074073698,"87":0.009633681004011062,"88":0.01095758239439323,"89":0.16231379526098358,"90":-0.08357632976351598,"91":0.06827639586179633,"92":-0.1248080635843527,"93":-0.022234506674430696,"94":0.07468500359370583,"95":-0.25230950949652664,"96":0.11284784329686783,"97":-0.05384250353904113,"98":-0.06651357403676927,"99":0.12016971361114573,"100":0.010528327810133947,"101":-0.018477764999078397,"102":0.0670144076557329,"103":-0.252189526867073,"104":-0.03640338936858933,"105":0.020495687698803226,"106":0.12892487256419605,"107":-0.0034292359906800576,"108":0.10540245862036016,"109":-0.020371979558663357,"110":-0.03263708650925191,"111":-0.04699301639452881,"112":-0.07127353793454455,"113":0.05837485513651756,"114":0.09068946034746377,"115":-0.15208399834641825,"116":-0.08959829277914505,"117":0.02970326079041068,"118":-0.05090127781074444,"119":-0.1456162810540855,"120":0.07015101469230743,"121":-0.025215471587681414,"122":0.043421448698477826,"123":0.0461883121598214,"124":0.025302730767791052,"125":-0.15846584867921182,"126":0.022906266049369347,"127":0.18498272293154835,"128":0.14074440842170466,"129":-0.05693243113923231,"130":0.016081556671360984,"131":0.06819821235223669,"132":0.10960752170160501,"133":-0.11337175046276961,"134":0.23562158729693675,"135":0.22482071205379597,"136":0.11516377137492928,"137":-0.09671380408757377,"138":0.17236544011590457,"139":0.027389551948143756,"140":0.34143945092409916,"141":-0.031085485196995465,"142":0.0405419935010208,"143":0.21062014228282272,"144":-0.028403950631151136,"145":-0.09435743488625947,"146":0.1404069456251423,"147":-0.01616339781882857,"148":0.23521079029152625,"149":-0.10291127514210037,"150":0.059733152239634366,"151":0.09806140944087977,"152":-0.1920221316644937,"153":-0.16725141307121827,"154":0.008380202175518353,"155":-0.056732541773353226,"156":0.18273381997046423,"157":-0.04817535514836868,"158":0.003286428325659067,"159":-0.17855197843210585,"160":-0.13428532792325193,"161":0.009415335630021206,"162":0.2669441696218679,"163":-0.1375367927002666,"164":0.21480088558137517,"165":-0.07018956477282585,"166":0.18106677154728967,"167":0.08465102888250015,"168":-0.3094618324586105,"169":-0.21320075332971455,"170":0.2239910979972453,"171":-0.3386931720198941,"172":0.29731702071425337,"173":0.10309302215247043,"174":0.09497241839164106,"175":-0.14671010654874497,"176":-0.3436816336946577,"177":-0.083257062281376,"178":0.37547301754133683,"179":-0.3619758886905798,"180":0.2265479438982791,"181":0.10983576321841958,"182":0.04894596463376928,"183":-0.12061982039335939,"184":-0.47597947988764866,"185":-0.14483727736656127,"186":0.21529671281631219,"187":-0.25325228249335197,"188":0.15297081837220813,"189":0.12266163068155202,"190":-0.05624816347589473,"191":-0.1565826535253269,"192":-0.3572078347560185,"193":-0.07542485934232782,"194":-0.16861769076693256,"195":-0.16266554035238132,"196":-0.17038121684687674,"197":0.06528142337804842,"198":-0.09331708405415004,"199":-0.11521683706607504}}],"biases":{"sx":1,"sy":1,"depth":8,"w":{"0":0.09084324422590834,"1":0.13483572171524327,"2":0.12892929086245347,"3":0.16246223897553294,"4":0.09760539707416102,"5":0.13569271383593567,"6":0.16121909596218756,"7":0.06586252144285915}}},{"out_depth":8,"out_sx":20,"out_sy":20,"layer_type":"relu"},{"sx":5,"sy":5,"stride":1,"in_depth":8,"out_depth":8,"out_sx":16,"out_sy":16,"layer_type":"conv","l1_decay_mul":0,"l2_decay_mul":1,"pad":0,"filters":[{"sx":5,"sy":5,"depth":8,"w":{"0":0.17613127802135187,"1":-0.2223399992912164,"2":-0.053741762630283206,"3":-0.07953276639349614,"4":-0.021091933991063315,"5":-0.06337211074870325,"6":0.33030517962452327,"7":-0.14747432998225246,"8":0.028613392150133758,"9":-0.20884033800541024,"10":0.01849782319614407,"11":-0.08092295818699727,"12":-0.06389291772193524,"13":-0.06354898355839689,"14":0.17959716966854855,"15":-0.007997189806402849,"16":-0.07421960589162291,"17":-0.12153351479925606,"18":-0.055607750348376526,"19":0.04436065844410765,"20":-0.06571875769902934,"21":-0.11489204571358798,"22":-0.1271126728863211,"23":0.18622449465106652,"24":0.009470886818897413,"25":-0.11882745370499254,"26":-0.002542218474167769,"27":0.10411834903295715,"28":-0.05430696325035502,"29":0.13454170554506165,"30":-0.03908781022915825,"31":0.04403503156271442,"32":-0.06759086014422323,"33":0.1260736042488137,"34":-0.07785771746781875,"35":0.07381601943917904,"36":0.0031837907659762413,"37":0.2871905103743097,"38":-0.13829047721250148,"39":-0.09024613740675685,"40":0.03439007876448093,"41":-0.19581403665042058,"42":0.13124553347985404,"43":-0.07280136080186221,"44":-0.12034227296510812,"45":0.027814115524435794,"46":0.24721258015519756,"47":-0.10941155962782473,"48":-0.041388491562220915,"49":-0.22049927009189668,"50":0.07298214151411032,"51":-0.05171291063081927,"52":-0.12269709293922254,"53":0.08124871965081246,"54":0.32736066383214873,"55":0.1078909249087514,"56":0.03572440616492605,"57":-0.0026263735597105106,"58":-0.06509639758458226,"59":-0.0560537427654707,"60":0.06058647785944465,"61":0.18416268550241688,"62":-0.17361676556474162,"63":0.09484438487756,"64":-0.1760373237045757,"65":0.0861770115621599,"66":-0.01339977543129691,"67":-0.07808114445518649,"68":0.032186418806439215,"69":0.15653722425688305,"70":-0.135244500759145,"71":-0.12648487056472993,"72":-0.11789171914954988,"73":0.14318797947215597,"74":-0.09963422286965087,"75":0.017010047304181698,"76":0.09186907390084222,"77":0.2784827705646154,"78":-0.21995220961726603,"79":-0.12682625070363757,"80":-0.015151004554805622,"81":-0.12831705712020186,"82":-0.0047400090340383935,"83":-0.21919227813068426,"84":-0.13071031962002977,"85":0.14901582783152995,"86":0.0481306008187981,"87":-0.045350565462973946,"88":-0.021538281928482606,"89":-0.09128876220475643,"90":0.0017148757027533052,"91":-0.14752635169666614,"92":0.2019603836242947,"93":0.057251685002130286,"94":0.20532506293869218,"95":0.021133926373748103,"96":-0.011949209079581666,"97":-0.05392204426354506,"98":0.04340142001848537,"99":-0.23416016119744915,"100":-0.06082146655458696,"101":0.12465637571854404,"102":-0.07250060359210148,"103":0.05621764863775144,"104":0.05740661952120632,"105":0.1393933842192709,"106":0.038675375129885184,"107":-0.29243893522164044,"108":0.1535988709657421,"109":0.12384705392609423,"110":0.059331229633138444,"111":-0.17319432598053056,"112":-0.06863238107329893,"113":0.1647711434220819,"114":-0.18276717826869598,"115":-0.22015603292991637,"116":-0.06769478800606243,"117":-0.03389603712189458,"118":-0.14577575418453387,"119":-0.33490990282035327,"120":0.005038657105020997,"121":-0.23816416658336217,"122":0.09864076794205642,"123":-0.04721686183801556,"124":0.04764654836968838,"125":0.052069860844322094,"126":0.09419379669561707,"127":-0.18287283168980267,"128":-0.1309067266957357,"129":-0.0745190836885851,"130":-0.04577381041038944,"131":-0.16785424742162225,"132":0.09277317716787468,"133":0.04991970767492313,"134":0.10425098743342709,"135":-0.08435230617528036,"136":-0.08948078265991996,"137":0.012245059103493364,"138":-0.06982265268178921,"139":-0.25774644169456906,"140":0.08926659415768237,"141":-0.14323793452198585,"142":0.033693420855824184,"143":-0.1734675369592453,"144":-0.036570631273120845,"145":-0.11974924018693421,"146":-0.030481221937681508,"147":-0.14726325201312115,"148":0.15866823910552197,"149":0.08481481967032739,"150":-0.0073855279965606225,"151":-0.09714780441084507,"152":-0.21479678396584256,"153":-0.030138471448375205,"154":-0.06703324550763638,"155":-0.05083010440064527,"156":0.01776380323034101,"157":-0.047772213074480215,"158":-0.20192263746531108,"159":0.24831947754789496,"160":0.10677480076458175,"161":-0.00862869635604112,"162":-0.053320735998264285,"163":-0.1319823216585338,"164":0.0578865489775349,"165":-0.1524829000048801,"166":0.018739135437228584,"167":-0.08209336441416148,"168":-0.040669153028888204,"169":-0.19852617898911207,"170":-0.07846091531804429,"171":-0.05932868164245178,"172":0.019809417034724046,"173":-0.14677233281490618,"174":0.04300573687651911,"175":0.06748484473691352,"176":-0.045749101135044726,"177":-0.23188474160305056,"178":0.0027843840773333285,"179":-0.05294230974018257,"180":0.09801467086784518,"181":-0.05407993010776497,"182":0.007996874185329713,"183":-0.0390685259428984,"184":-0.13808219228742874,"185":-0.0963760593972567,"186":-0.06247509589136081,"187":0.08746915413994732,"188":0.01732594054909609,"189":-0.060161486077847715,"190":-0.040277508006958423,"191":0.06165490046611481,"192":-0.04676318982525781,"193":-0.09511678322373911,"194":-0.14022110335625876,"195":0.1380802464247099,"196":0.07786877160450005,"197":-0.12186332786674899,"198":-0.28097241326634703,"199":0.36030568735685303}},{"sx":5,"sy":5,"depth":8,"w":{"0":0.14992269568109165,"1":0.1626479035781999,"2":0.08479829918336494,"3":0.05943026808890684,"4":0.08731105972980867,"5":0.3296909405327867,"6":0.0796040044574006,"7":0.028733827031039577,"8":0.05245425529138429,"9":0.2485156925138817,"10":-0.007066899741211579,"11":-0.0026592245487795253,"12":0.18302820782207668,"13":-0.10447636016672214,"14":-0.17188323767588076,"15":0.06907446569815957,"16":-0.06251940690814534,"17":0.09619333317480079,"18":-0.031099695514783084,"19":-0.1180678370335313,"20":0.08976162917177843,"21":-0.3155287815724554,"22":-0.06906095517558675,"23":0.10842378130421913,"24":-0.023033932236238175,"25":0.11583785348086392,"26":0.05138325829873744,"27":0.0172236513330824,"28":-0.07901100217037323,"29":-0.134699723586439,"30":-0.17886447835004934,"31":0.0594175229603034,"32":0.04578516329473443,"33":0.0356422432607771,"34":-0.0347407839896264,"35":-0.04500881269846796,"36":-0.09237526633128071,"37":-0.17950588811394746,"38":-0.14352358561414894,"39":-0.04725860634754516,"40":-0.05726377121985578,"41":-0.005271271348862287,"42":0.056322844958264194,"43":0.2747159931084142,"44":-0.016103861427812446,"45":0.151100448415753,"46":-0.04779346944893367,"47":-0.13229340162611564,"48":-0.037821919277214344,"49":0.15343975282824268,"50":0.08065741723258507,"51":0.30512953811431276,"52":0.17155650661219354,"53":0.026313417065157923,"54":-0.046607610249815044,"55":-0.13876920541846607,"56":-0.17652332168898205,"57":0.07284243574628935,"58":-0.12742143070311812,"59":0.11872718542111099,"60":0.15156815942463367,"61":-0.0015044975143238333,"62":0.06839150992703931,"63":-0.11329329900695326,"64":-0.06267730922031074,"65":-0.02236931880790431,"66":-0.06945619492277491,"67":0.15210914133400086,"68":-0.06915568365097606,"69":-0.025439536188784435,"70":0.10383699671152154,"71":-0.14054509249265135,"72":0.027729265638282128,"73":-0.055959553736281954,"74":-0.02705926119984012,"75":-0.013615428158724584,"76":0.008317906029644587,"77":-0.018316528273386277,"78":-0.06253045844136806,"79":-0.1721859724421263,"80":0.18056958321634092,"81":0.09596324006379069,"82":0.1272865724559646,"83":0.060816859665046304,"84":-0.11337687551051664,"85":0.1497305415431705,"86":0.0426420857628534,"87":-0.2445562316669468,"88":0.11179236976899107,"89":0.3043512342275217,"90":-0.008635643181594384,"91":0.023659705166946696,"92":0.06602790713666629,"93":0.2197124564742305,"94":-0.10297812234451716,"95":0.15812856282032395,"96":-0.06828823503201883,"97":0.13970587518025987,"98":0.1517800609870707,"99":-0.15299712593596174,"100":0.16243729168323956,"101":0.15320823265688285,"102":0.10240968719203315,"103":-0.14253338786883507,"104":-0.01840215234483407,"105":0.02085870293652077,"106":0.034058413029235575,"107":-0.1310008546211309,"108":0.09356618423007584,"109":0.29927838967177034,"110":0.23630754412293564,"111":-0.1826948973084518,"112":-0.03422004268730687,"113":0.08170057941678674,"114":-0.059431428484281096,"115":-0.12979144085875358,"116":0.08489792949059984,"117":0.2022494375642735,"118":0.03176833231021847,"119":-0.21388193522233478,"120":0.09731592826345156,"121":0.031358490925795124,"122":0.0265359146637423,"123":-0.2416084461358112,"124":-0.01764524451106841,"125":0.1604177271006886,"126":0.06793225392998373,"127":-0.08239620052043924,"128":0.2806875128602237,"129":0.1798073592295298,"130":0.033998485769551307,"131":-0.04514870459673832,"132":0.07082683287682913,"133":0.2429487010198167,"134":0.13119169022960445,"135":-0.15530847225618694,"136":0.0055181746489668775,"137":0.32918248800324185,"138":0.06368273628610839,"139":-0.22680005697015349,"140":0.13400016725234068,"141":0.2808397873108803,"142":0.25719637583817745,"143":-0.1580303734992262,"144":0.16186653284756264,"145":0.2205366946587504,"146":-0.04187697802698747,"147":-0.23547830528234817,"148":0.16662301546661337,